{"learner":{"attributes":{"scikit_learn":"{\"_estimator_type\": \"regressor\"}"},"feature_names":["trend_lag_1","Revenue_lag_1"],"feature_types":["float","float"],"gradient_booster":{"model":{"gbtree_model_param":{"num_parallel_tree":"1","num_trees":"50"},"iteration_indptr":[0,1,2,3,4,5,6,7,8,9,10,11,12,13,14,15,16,17,18,19,20,21,22,23,24,25,26,27,28,29,30,31,32,33,34,35,36,37,38,39,40,41,42,43,44,45,46,47,48,49,50],"tree_info":[0,0,0,0,0,0,0,0,0,0,0,0,0,0,0,0,0,0,0,0,0,0,0,0,0,0,0,0,0,0,0,0,0,0,0,0,0,0,0,0,0,0,0,0,0,0,0,0,0,0],"trees":[{"base_weights":[-5.126875E1,-4.6190298E2,1.4610579E3,4.048703E2,4.1504013E2,1.874425E2,-1.19210625E2],"categories":[],"categories_nodes":[],"categories_segments":[],"categories_sizes":[],"default_left":[0,0,0,0,0,0,0],"id":0,"left_children":[1,-1,3,5,-1,-1,-1],"loss_changes":[8.52985E7,0E0,8.04913E6,5.379961E6,0E0,0E0,0E0],"parents":[2147483647,0,0,2,2,3,3],"right_children":[2,-1,4,6,-1,-1,-1],"split_conditions":[1.5778E4,-4.6190298E2,1.9163E4,1.8353E4,4.1504013E2,1.874425E2,-1.19210625E2],"split_indices":[1,0,1,1,0,0,0],"split_type":[0,0,0,0,0,0,0],"sum_hessian":[2.1E1,8E0,1.3E1,6E0,7E0,4E0,2E0],"tree_param":{"num_deleted":"0","num_feature":"2","num_nodes":"7","size_leaf_vector":"1"}},{"base_weights":[-7.541619E1,-1.4104963E3,1.3525272E3,-3.3859067E2,-5.232712E2,2.6417294E2,3.5983862E2,-4.6276615E1,-1.5163332E2,1.5980406E2,-1.0728953E2],"categories":[],"categories_nodes":[],"categories_segments":[],"categories_sizes":[],"default_left":[0,0,0,0,0,0,0,0,0,0,0],"id":1,"left_children":[1,3,5,-1,7,9,-1,-1,-1,-1,-1],"loss_changes":[6.291446E7,2.48828E6,6.82729E6,0E0,1.28989375E5,3.8547595E6,0E0,0E0,0E0,0E0,0E0],"parents":[2147483647,0,0,1,1,2,2,4,4,5,5],"right_children":[2,4,6,-1,8,10,-1,-1,-1,-1,-1],"split_conditions":[1.6505E4,1.5778E4,1.9163E4,-3.3859067E2,1.6374E4,1.8353E4,3.5983862E2,-4.6276615E1,-1.5163332E2,1.5980406E2,-1.0728953E2],"split_indices":[1,1,1,0,1,1,0,0,0,0,0],"split_type":[0,0,0,0,0,0,0,0,0,0,0],"sum_hessian":[2.9E1,1.5E1,1.4E1,1E1,5E0,5E0,9E0,4E0,1E0,3E0,2E0],"tree_param":{"num_deleted":"0","num_feature":"2","num_nodes":"11","size_leaf_vector":"1"}},{"base_weights":[-8.4606064E1,-1.3022977E3,1.350127E3,-3.4764697E2,-5.4077374E2,1.1988564E2,3.144376E2,-2.0304205E1,-1.1490077E2,6.6590996E1,-3.461482E1],"categories":[],"categories_nodes":[],"categories_segments":[],"categories_sizes":[],"default_left":[0,0,0,0,0,0,0,0,0,0,0],"id":2,"left_children":[1,3,5,-1,7,9,-1,-1,-1,-1,-1],"loss_changes":[4.5446028E7,2.76746E6,2.90113E6,0E0,1.81225E3,3.6495062E5,0E0,0E0,0E0,0E0,0E0],"parents":[2147483647,0,0,1,1,2,2,4,4,5,5],"right_children":[2,4,6,-1,8,10,-1,-1,-1,-1,-1],"split_conditions":[1.7267062E4,1.4692625E4,1.813075E4,-3.4764697E2,1.4895875E4,1.7654375E4,3.144376E2,-2.0304205E1,-1.1490077E2,6.6590996E1,-3.461482E1],"split_indices":[0,0,0,0,0,0,0,0,0,0,0],"split_type":[0,0,0,0,0,0,0,0,0,0,0],"sum_hessian":[2.2E1,1.2E1,1E1,6E0,6E0,2E0,8E0,1E0,5E0,1E0,1E0],"tree_param":{"num_deleted":"0","num_feature":"2","num_nodes":"11","size_leaf_vector":"1"}},{"base_weights":[-1.7860875E2,-1.2019772E3,1.0450808E3,-2.7803622E2,-3.071177E2,2.3036256E2,2.7896738E2,9.565208E0,-8.3958336E1,1.3649309E2,-2.6604828E1],"categories":[],"categories_nodes":[],"categories_segments":[],"categories_sizes":[],"default_left":[0,0,0,0,0,0,0,0,0,0,0],"id":3,"left_children":[1,3,5,-1,7,9,-1,-1,-1,-1,-1],"loss_changes":[3.2567188E7,1.503758E6,2.776632E6,0E0,2.4015572E5,1.1673525E6,0E0,0E0,0E0,0E0,0E0],"parents":[2147483647,0,0,1,1,2,2,4,4,5,5],"right_children":[2,4,6,-1,8,10,-1,-1,-1,-1,-1],"split_conditions":[1.6780188E4,1.57783125E4,1.849475E4,-2.7803622E2,1.6347375E4,1.7262375E4,2.7896738E2,9.565208E0,-8.3958336E1,1.3649309E2,-2.6604828E1],"split_indices":[0,0,0,0,0,0,0,0,0,0,0],"split_type":[0,0,0,0,0,0,0,0,0,0,0],"sum_hessian":[2.2E1,1.2E1,1E1,9E0,3E0,4E0,6E0,1E0,2E0,1E0,3E0],"tree_param":{"num_deleted":"0","num_feature":"2","num_nodes":"11","size_leaf_vector":"1"}},{"base_weights":[-5.1528584E1,-9.7359595E2,7.617152E2,-2.2278197E2,-2.7544717E2,1.3629097E2,2.219403E2,8.927578E0,-7.5562485E1,1.2739359E2,-2.3442177E1],"categories":[],"categories_nodes":[],"categories_segments":[],"categories_sizes":[],"default_left":[0,0,0,0,0,0,0,0,0,0,0],"id":4,"left_children":[1,3,5,-1,7,9,-1,-1,-1,-1,-1],"loss_changes":[2.2479462E7,7.57654E5,3.179616E6,0E0,1.9759072E5,1.1647515E6,0E0,0E0,0E0,0E0,0E0],"parents":[2147483647,0,0,1,1,2,2,4,4,5,5],"right_children":[2,4,6,-1,8,10,-1,-1,-1,-1,-1],"split_conditions":[1.6780188E4,1.57783125E4,1.849475E4,-2.2278197E2,1.6347375E4,1.7262375E4,2.219403E2,8.927578E0,-7.5562485E1,1.2739359E2,-2.3442177E1],"split_indices":[0,0,0,0,0,0,0,0,0,0,0],"split_type":[0,0,0,0,0,0,0,0,0,0,0],"sum_hessian":[2.6E1,1.2E1,1.4E1,9E0,3E0,6E0,8E0,1E0,2E0,1E0,5E0],"tree_param":{"num_deleted":"0","num_feature":"2","num_nodes":"11","size_leaf_vector":"1"}},{"base_weights":[-3.013338E2,-1.6279272E2,5.791306E2,5.0089767E1,7.915368E2,1.2881013E2,-8.408016E1,1.7033945E2,2.8698282E1],"categories":[],"categories_nodes":[],"categories_segments":[],"categories_sizes":[],"default_left":[0,0,0,0,0,0,0,0,0],"id":5,"left_children":[1,-1,3,5,7,-1,-1,-1,-1],"loss_changes":[1.1775262E7,0E0,1.04433525E6,1.9388061E6,2.8385E4,0E0,0E0,0E0,0E0],"parents":[2147483647,0,0,2,2,3,3,4,4],"right_children":[2,-1,4,6,8,-1,-1,-1,-1],"split_conditions":[1.8333E4,-1.6279272E2,1.9163E4,1.8353E4,2.0528E4,1.2881013E2,-8.408016E1,1.7033945E2,2.8698282E1],"split_indices":[1,0,1,1,1,0,0,0,0],"split_type":[0,0,0,0,0,0,0,0,0],"sum_hessian":[2.2E1,1.4E1,8E0,3E0,5E0,1E0,2E0,4E0,1E0],"tree_param":{"num_deleted":"0","num_feature":"2","num_nodes":"9","size_leaf_vector":"1"}},{"base_weights":[-5.7751144E1,-5.861836E2,5.166695E2,-1.508797E2,-1.7838123E2,2.1557304E2,1.2720581E2,3.186185E0,-8.962361E1,1.20902176E2,-7.567215E1],"categories":[],"categories_nodes":[],"categories_segments":[],"categories_sizes":[],"default_left":[0,0,0,0,0,0,0,0,0,0,0],"id":6,"left_children":[1,3,5,-1,7,9,-1,-1,-1,-1,-1],"loss_changes":[8.80138E6,7.597425E5,2.28836E5,0E0,3.8121306E5,2.0744918E6,0E0,0E0,0E0,0E0,0E0],"parents":[2147483647,0,0,1,1,2,2,4,4,5,5],"right_children":[2,4,6,-1,8,10,-1,-1,-1,-1,-1],"split_conditions":[1.6505E4,1.5778E4,1.9163E4,-1.508797E2,1.6374E4,1.8353E4,1.2720581E2,3.186185E0,-8.962361E1,1.20902176E2,-7.567215E1],"split_indices":[1,1,1,0,1,1,0,0,0,0,0],"split_type":[0,0,0,0,0,0,0,0,0,0,0],"sum_hessian":[2.5E1,1.3E1,1.2E1,8E0,5E0,5E0,7E0,4E0,1E0,3E0,2E0],"tree_param":{"num_deleted":"0","num_feature":"2","num_nodes":"11","size_leaf_vector":"1"}},{"base_weights":[4.5711975E1,-5.1075626E2,5.9565704E2,-1.584435E2,-1.783295E2,1.356767E2,1.5050078E2,3.275179E1,-6.457432E1,1.2169334E2,-4.0449596E1],"categories":[],"categories_nodes":[],"categories_segments":[],"categories_sizes":[],"default_left":[0,0,0,0,0,0,0,0,0,0,0],"id":7,"left_children":[1,3,5,-1,7,9,-1,-1,-1,-1,-1],"loss_changes":[8.565181E6,1.02726475E6,8.05767E5,0E0,5.5077775E5,1.2047674E6,0E0,0E0,0E0,0E0,0E0],"parents":[2147483647,0,0,1,1,2,2,4,4,5,5],"right_children":[2,4,6,-1,8,10,-1,-1,-1,-1,-1],"split_conditions":[1.6968125E4,1.44686875E4,1.849475E4,-1.584435E2,1.51348125E4,1.7262375E4,1.5050078E2,3.275179E1,-6.457432E1,1.2169334E2,-4.0449596E1],"split_indices":[0,0,0,0,0,0,0,0,0,0,0],"split_type":[0,0,0,0,0,0,0,0,0,0,0],"sum_hessian":[2.4E1,1.2E1,1.2E1,5E0,7E0,4E0,8E0,2E0,5E0,1E0,3E0],"tree_param":{"num_deleted":"0","num_feature":"2","num_nodes":"11","size_leaf_vector":"1"}},{"base_weights":[-1.21674416E2,-4.6166226E2,1.5856615E2,-1.23107475E2,-1.5388307E2,-8.698633E0,3.566246E2,3.6059414E1,-5.857159E1,3.436609E1,-6.406004E1,1.0709841E2,2.132686E1],"categories":[],"categories_nodes":[],"categories_segments":[],"categories_sizes":[],"default_left":[0,0,0,0,0,0,0,0,0,0,0,0,0],"id":8,"left_children":[1,3,5,-1,7,9,11,-1,-1,-1,-1,-1,-1],"loss_changes":[2.1472845E6,2.84077E5,4.3690575E5,0E0,3.8426994E5,6.1636775E5,1.5402294E5,0E0,0E0,0E0,0E0,0E0,0E0],"parents":[2147483647,0,0,1,1,2,2,4,4,5,5,6,6],"right_children":[2,4,6,-1,8,10,12,-1,-1,-1,-1,-1,-1],"split_conditions":[1.5778E4,1.4763E4,1.9163E4,-1.23107475E2,1.4796E4,1.8353E4,1.9631E4,3.6059414E1,-5.857159E1,3.436609E1,-6.406004E1,1.0709841E2,2.132686E1],"split_indices":[1,1,1,0,1,1,1,0,0,0,0,0,0],"split_type":[0,0,0,0,0,0,0,0,0,0,0,0,0],"sum_hessian":[1.9E1,8E0,1.1E1,4E0,4E0,7E0,4E0,1E0,3E0,5E0,2E0,1E0,3E0],"tree_param":{"num_deleted":"0","num_feature":"2","num_nodes":"13","size_leaf_vector":"1"}},{"base_weights":[-1.1114778E2,-4.8831064E2,9.838797E1,-1.2851324E2,-3.1693478E2,3.365544E1,-7.832998E1],"categories":[],"categories_nodes":[],"categories_segments":[],"categories_sizes":[],"default_left":[0,0,0,0,0,0,0],"id":9,"left_children":[1,3,-1,-1,5,-1,-1],"loss_changes":[6.3944575E6,4.200775E4,0E0,0E0,5.668659E5,0E0,0E0],"parents":[2147483647,0,0,1,1,4,4],"right_children":[2,4,-1,-1,6,-1,-1],"split_conditions":[1.8333E4,1.4763E4,9.838797E1,-1.2851324E2,1.4796E4,3.365544E1,-7.832998E1],"split_indices":[1,1,0,0,1,0,0],"split_type":[0,0,0,0,0,0,0],"sum_hessian":[2.4E1,1.5E1,9E0,5E0,1E1,1E0,9E0],"tree_param":{"num_deleted":"0","num_feature":"2","num_nodes":"7","size_leaf_vector":"1"}},{"base_weights":[-4.826216E1,-4.2570197E2,5.7713055E2,-3.2563595E1,-1.0742416E2,1.2633258E2,1.3020287E1,-8.769067E1,5.76221E1],"categories":[],"categories_nodes":[],"categories_segments":[],"categories_sizes":[],"default_left":[0,0,0,0,0,0,0,0,0],"id":10,"left_children":[1,3,5,7,-1,-1,-1,-1,-1],"loss_changes":[4.9762705E6,5.34401E5,1.41063E5,9.034526E5,0E0,0E0,0E0,0E0,0E0],"parents":[2147483647,0,0,1,1,2,2,3,3],"right_children":[2,4,6,8,-1,-1,-1,-1,-1],"split_conditions":[1.9163E4,1.4721E4,2.0528E4,1.3195E4,-1.0742416E2,1.2633258E2,1.3020287E1,-8.769067E1,5.76221E1],"split_indices":[1,1,1,1,0,0,0,0,0],"split_type":[0,0,0,0,0,0,0,0,0],"sum_hessian":[1.7E1,1.1E1,6E0,3E0,8E0,5E0,1E0,1E0,2E0],"tree_param":{"num_deleted":"0","num_feature":"2","num_nodes":"9","size_leaf_vector":"1"}},{"base_weights":[1.1365564E2,-4.2717007E2,4.590587E2,-5.641005E2,-1.4783295E2,5.883553E2,6.8978775E1,-2.6814484E1,-1.4241068E2,3.8573345E1,-5.862791E1,1.2983421E1,1.5368056E2,-5.5624714E1,4.9933735E1],"categories":[],"categories_nodes":[],"categories_segments":[],"categories_sizes":[],"default_left":[0,0,0,0,0,0,0,0,0,0,0,0,0,0,0],"id":11,"left_children":[1,3,5,7,9,11,13,-1,-1,-1,-1,-1,-1,-1,-1],"loss_changes":[4.688661E6,2.1564112E5,6.7530625E5,1.9072538E5,4.1011934E5,9.368325E5,5.1518194E5,0E0,0E0,0E0,0E0,0E0,0E0,0E0,0E0],"parents":[2147483647,0,0,1,1,2,2,3,3,4,4,5,5,6,6],"right_children":[2,4,6,8,10,12,14,-1,-1,-1,-1,-1,-1,-1,-1],"split_conditions":[1.5778E4,1.4763E4,1.9631E4,1.3702E4,1.4796E4,1.6149E4,1.9828E4,-2.6814484E1,-1.4241068E2,3.8573345E1,-5.862791E1,1.2983421E1,1.5368056E2,-5.5624714E1,4.9933735E1],"split_indices":[1,1,1,1,1,1,1,0,0,0,0,0,0,0,0],"split_type":[0,0,0,0,0,0,0,0,0,0,0,0,0,0,0],"sum_hessian":[2.1E1,8E0,1.3E1,4E0,4E0,9E0,4E0,2E0,2E0,1E0,3E0,3E0,6E0,1E0,3E0],"tree_param":{"num_deleted":"0","num_feature":"2","num_nodes":"15","size_leaf_vector":"1"}},{"base_weights":[1.717289E2,-3.390107E2,4.0802325E2,-1.1766537E1,-1.1921588E2,3.3589012E1,4.5062265E2,-6.3856136E1,6.0321175E1,1.5370353E1,-6.406615E0,9.436681E1,8.823412E0],"categories":[],"categories_nodes":[],"categories_segments":[],"categories_sizes":[],"default_left":[0,0,0,0,0,0,0,0,0,0,0,0,0],"id":12,"left_children":[1,3,5,7,-1,9,11,-1,-1,-1,-1,-1,-1],"loss_changes":[3.2937775E6,7.430298E5,2.56792E5,7.7079425E5,0E0,1.6284045E4,9.627775E4,0E0,0E0,0E0,0E0,0E0,0E0],"parents":[2147483647,0,0,1,1,2,2,3,3,5,5,6,6],"right_children":[2,4,6,8,-1,10,12,-1,-1,-1,-1,-1,-1],"split_conditions":[1.5778E4,1.4721E4,1.6066E4,1.3533E4,-1.1921588E2,1.6061E4,2.0528E4,-6.3856136E1,6.0321175E1,1.5370353E1,-6.406615E0,9.436681E1,8.823412E0],"split_indices":[1,1,1,1,0,1,1,0,0,0,0,0,0],"split_type":[0,0,0,0,0,0,0,0,0,0,0,0,0],"sum_hessian":[2.3E1,7E0,1.6E1,4E0,3E0,2E0,1.4E1,2E0,2E0,1E0,1E0,1.3E1,1E0],"tree_param":{"num_deleted":"0","num_feature":"2","num_nodes":"13","size_leaf_vector":"1"}},{"base_weights":[3.2869286E1,-4.290037E2,3.6720023E2,-1.0711958E2,-2.1505045E2,1.5218779E2,1.4193405E2,-7.281237E0,-8.5787735E1,-7.635726E1,5.1793957E1],"categories":[],"categories_nodes":[],"categories_segments":[],"categories_sizes":[],"default_left":[0,0,0,0,0,0,0,0,0,0,0],"id":13,"left_children":[1,3,5,-1,7,-1,9,-1,-1,-1,-1],"loss_changes":[4.0210968E6,2.0431875E4,1.1143436E6,0E0,2.3619078E5,0E0,9.3325794E5,0E0,0E0,0E0,0E0],"parents":[2147483647,0,0,1,1,2,2,4,4,6,6],"right_children":[2,4,6,-1,8,-1,10,-1,-1,-1,-1],"split_conditions":[1.6505E4,1.4763E4,1.8353E4,-1.0711958E2,1.6374E4,1.5218779E2,1.8657E4,-7.281237E0,-8.5787735E1,-7.635726E1,5.1793957E1],"split_indices":[1,1,1,0,1,0,1,0,0,0,0],"split_type":[0,0,0,0,0,0,0,0,0,0,0],"sum_hessian":[2.2E1,9E0,1.3E1,4E0,5E0,3E0,1E1,4E0,1E0,1E0,9E0],"tree_param":{"num_deleted":"0","num_feature":"2","num_nodes":"11","size_leaf_vector":"1"}},{"base_weights":[1.1785106E2,-4.6984872E2,3.00662E2,-1.1415847E2,-1.3395572E2,1.5645084E2,9.651299E1,6.307201E0,-4.2035393E1,5.1641598E1,-2.192475E1],"categories":[],"categories_nodes":[],"categories_segments":[],"categories_sizes":[],"default_left":[0,0,0,0,0,0,0,0,0,0,0],"id":14,"left_children":[1,3,5,-1,7,9,-1,-1,-1,-1,-1],"loss_changes":[2.646149E6,5.044525E4,3.2112462E5,0E0,6.373008E4,4.0860112E5,0E0,0E0,0E0,0E0,0E0],"parents":[2147483647,0,0,1,1,2,2,4,4,5,5],"right_children":[2,4,6,-1,8,10,-1,-1,-1,-1,-1],"split_conditions":[1.44686875E4,1.400175E4,1.849475E4,-1.1415847E2,1.4059625E4,1.7262375E4,9.651299E1,6.307201E0,-4.2035393E1,5.1641598E1,-2.192475E1],"split_indices":[0,0,0,0,0,0,0,0,0,0,0],"split_type":[0,0,0,0,0,0,0,0,0,0,0],"sum_hessian":[2E1,4E0,1.6E1,2E0,2E0,1.1E1,5E0,1E0,1E0,8E0,3E0],"tree_param":{"num_deleted":"0","num_feature":"2","num_nodes":"11","size_leaf_vector":"1"}},{"base_weights":[-8.94988E0,-4.258414E2,1.0555689E2,-1.0274265E2,-1.2502383E2,5.634877E0,2.2432632E2,5.886693E0,-3.9233047E1,3.3176098E1,-4.0398174E1,7.348085E1,1.291263E0],"categories":[],"categories_nodes":[],"categories_segments":[],"categories_sizes":[],"default_left":[0,0,0,0,0,0,0,0,0,0,0,0,0],"id":15,"left_children":[1,3,5,-1,7,9,11,-1,-1,-1,-1,-1,-1],"loss_changes":[1.3310924E6,3.0083875E4,2.5853788E5,0E0,5.551755E4,5.3280475E5,3.0694238E5,0E0,0E0,0E0,0E0,0E0,0E0],"parents":[2147483647,0,0,1,1,2,2,4,4,5,5,6,6],"right_children":[2,4,6,-1,8,10,12,-1,-1,-1,-1,-1,-1],"split_conditions":[1.44686875E4,1.400175E4,1.849475E4,-1.0274265E2,1.4059625E4,1.7262375E4,1.9151562E4,5.886693E0,-3.9233047E1,3.3176098E1,-4.0398174E1,7.348085E1,1.291263E0],"split_indices":[0,0,0,0,0,0,0,0,0,0,0,0,0],"split_type":[0,0,0,0,0,0,0,0,0,0,0,0,0],"sum_hessian":[2.4E1,4E0,2E1,2E0,2E0,1.2E1,8E0,1E0,1E0,7E0,5E0,4E0,4E0],"tree_param":{"num_deleted":"0","num_feature":"2","num_nodes":"13","size_leaf_vector":"1"}},{"base_weights":[-7.4171224E0,-2.1721774E2,1.4154416E2,-1.0058125E1,-2.840247E2,2.976831E2,2.6864063E1,-5.419861E1,3.8129425E1,-1.0790877E2,-1.136991E1,3.873383E0,9.934237E1,-7.447198E1,2.6173609E1],"categories":[],"categories_nodes":[],"categories_segments":[],"categories_sizes":[],"default_left":[0,0,0,0,0,0,0,0,0,0,0,0,0,0,0],"id":16,"left_children":[1,3,5,7,9,11,13,-1,-1,-1,-1,-1,-1,-1,-1],"loss_changes":[9.053079E5,1.603335E5,2.8837603E5,3.6519112E5,4.6102312E5,3.6845925E5,5.9568644E5,0E0,0E0,0E0,0E0,0E0,0E0,0E0,0E0],"parents":[2147483647,0,0,1,1,2,2,3,3,4,4,5,5,6,6],"right_children":[2,4,6,8,10,12,14,-1,-1,-1,-1,-1,-1,-1,-1],"split_conditions":[1.5778E4,1.3702E4,1.7053E4,1.3195E4,1.4763E4,1.6149E4,1.8333E4,-5.419861E1,3.8129425E1,-1.0790877E2,-1.136991E1,3.873383E0,9.934237E1,-7.447198E1,2.6173609E1],"split_indices":[1,1,1,1,1,1,1,0,0,0,0,0,0,0,0],"split_type":[0,0,0,0,0,0,0,0,0,0,0,0,0,0,0],"sum_hessian":[2.5E1,1E1,1.5E1,3E0,7E0,5E0,1E1,1E0,2E0,2E0,5E0,3E0,2E0,1E0,9E0],"tree_param":{"num_deleted":"0","num_feature":"2","num_nodes":"15","size_leaf_vector":"1"}},{"base_weights":[5.3122692E1,-7.185501E1,1.8553407E2,-1.2137354E1,2.0762447E2,4.279633E1,-4.6039623E1,7.3453995E1,2.321527E1],"categories":[],"categories_nodes":[],"categories_segments":[],"categories_sizes":[],"default_left":[0,0,0,0,0,0,0,0,0],"id":17,"left_children":[1,-1,3,5,7,-1,-1,-1,-1],"loss_changes":[1.5530581E6,0E0,9.675906E4,2.957487E5,1.9237856E5,0E0,0E0,0E0,0E0],"parents":[2147483647,0,0,2,2,3,3,4,4],"right_children":[2,-1,4,6,8,-1,-1,-1,-1],"split_conditions":[1.4692625E4,-7.185501E1,1.57783125E4,1.4895875E4,1.7262375E4,4.279633E1,-4.6039623E1,7.3453995E1,2.321527E1],"split_indices":[0,0,0,0,0,0,0,0,0],"split_type":[0,0,0,0,0,0,0,0,0],"sum_hessian":[2.4E1,5E0,1.9E1,2E0,1.7E1,1E0,1E0,4E0,1.3E1],"tree_param":{"num_deleted":"0","num_feature":"2","num_nodes":"9","size_leaf_vector":"1"}},{"base_weights":[-5.0308304E1,-1.473743E2,4.7004158E1,-1.6771149E1,-2.2479597E2,3.38755E2,-9.414698E1,-3.045194E1,5.307068E1,-4.8583332E1,-6.5234118E0,1.4528646E-1,8.457479E1,-7.4404015E1,1.6068672E0],"categories":[],"categories_nodes":[],"categories_segments":[],"categories_sizes":[],"default_left":[0,0,0,0,0,0,0,0,0,0,0,0,0,0,0],"id":18,"left_children":[1,3,5,7,9,11,13,-1,-1,-1,-1,-1,-1,-1,-1],"loss_changes":[2.500077E5,1.23885375E5,6.4034344E5,3.4836644E5,1.1985281E4,1.4151625E5,3.1834206E5,0E0,0E0,0E0,0E0,0E0,0E0,0E0,0E0],"parents":[2147483647,0,0,1,1,2,2,3,3,4,4,5,5,6,6],"right_children":[2,4,6,8,10,12,14,-1,-1,-1,-1,-1,-1,-1,-1],"split_conditions":[1.6149E4,1.4721E4,1.7053E4,1.4465E4,1.5778E4,1.6374E4,1.8333E4,-3.045194E1,5.307068E1,-4.8583332E1,-6.5234118E0,1.4528646E-1,8.457479E1,-7.4404015E1,1.6068672E0],"split_indices":[1,1,1,1,1,1,1,0,0,0,0,0,0,0,0],"split_type":[0,0,0,0,0,0,0,0,0,0,0,0,0,0,0],"sum_hessian":[2.3E1,1.1E1,1.2E1,5E0,6E0,3E0,9E0,4E0,1E0,5E0,1E0,1E0,2E0,1E0,8E0],"tree_param":{"num_deleted":"0","num_feature":"2","num_nodes":"15","size_leaf_vector":"1"}},{"base_weights":[-3.2529736E1,-1.6443265E2,1.22856415E2,-8.047328E1,-9.491488E1,2.8714764E2,-7.213643E1,-4.5708332E1,7.851848E0,1.9223656E1,7.26596E1,-4.2573032E1,1.9485374E1],"categories":[],"categories_nodes":[],"categories_segments":[],"categories_sizes":[],"default_left":[0,0,0,0,0,0,0,0,0,0,0,0,0],"id":19,"left_children":[1,3,5,7,-1,9,11,-1,-1,-1,-1,-1,-1],"loss_changes":[6.1429225E5,3.401923E5,4.8994772E5,2.838927E5,0E0,4.64905E4,2.3238853E5,0E0,0E0,0E0,0E0,0E0,0E0],"parents":[2147483647,0,0,1,1,2,2,3,3,5,5,6,6],"right_children":[2,4,6,8,-1,10,12,-1,-1,-1,-1,-1,-1],"split_conditions":[1.6505E4,1.6374E4,1.9631E4,1.4763E4,-9.491488E1,1.8333E4,1.9828E4,-4.5708332E1,7.851848E0,1.9223656E1,7.26596E1,-4.2573032E1,1.9485374E1],"split_indices":[1,1,1,1,0,1,1,0,0,0,0,0,0],"split_type":[0,0,0,0,0,0,0,0,0,0,0,0,0],"sum_hessian":[2.6E1,1.4E1,1.2E1,1.3E1,1E0,6E0,6E0,5E0,8E0,3E0,3E0,3E0,3E0],"tree_param":{"num_deleted":"0","num_feature":"2","num_nodes":"13","size_leaf_vector":"1"}},{"base_weights":[-8.345401E1,-1.7958093E2,1.6569844E2,-3.8938145E1,-3.632177E2,2.051767E2,2.3606836E1,-6.865496E1,1.576006E1,-8.163247E1,-3.233698E0,4.238125E0,4.6695534E1,-1.1475756E1,1.7777578E1],"categories":[],"categories_nodes":[],"categories_segments":[],"categories_sizes":[],"default_left":[0,0,0,0,0,0,0,0,0,0,0,0,0,0,0],"id":20,"left_children":[1,3,5,7,9,11,13,-1,-1,-1,-1,-1,-1,-1,-1],"loss_changes":[6.582704E5,4.6239038E5,3.5166203E4,5.199444E5,1.1154275E5,2.1321328E4,3.1351014E4,0E0,0E0,0E0,0E0,0E0,0E0,0E0,0E0],"parents":[2147483647,0,0,1,1,2,2,3,3,4,4,5,5,6,6],"right_children":[2,4,6,8,10,12,14,-1,-1,-1,-1,-1,-1,-1,-1],"split_conditions":[1.813075E4,1.6558438E4,1.9151562E4,1.400175E4,1.808675E4,1.849475E4,1.9375875E4,-6.865496E1,1.576006E1,-8.163247E1,-3.233698E0,4.238125E0,4.6695534E1,-1.1475756E1,1.7777578E1],"split_indices":[0,0,0,0,0,0,0,0,0,0,0,0,0,0,0],"split_type":[0,0,0,0,0,0,0,0,0,0,0,0,0,0,0],"sum_hessian":[2.3E1,1.7E1,6E0,1.1E1,6E0,4E0,2E0,2E0,9E0,5E0,1E0,1E0,3E0,1E0,1E0],"tree_param":{"num_deleted":"0","num_feature":"2","num_nodes":"15","size_leaf_vector":"1"}},{"base_weights":[-3.9793102E1,-1.9824396E2,1.02830055E2,5.8795822E1,-2.8712506E2,7.594178E1,1.8088642E0,-3.6140667E1,4.1809456E1,-3.3924057E1,-8.963787E1,-7.829705E1,2.8901022E1],"categories":[],"categories_nodes":[],"categories_segments":[],"categories_sizes":[],"default_left":[0,0,0,0,0,0,0,0,0,0,0,0,0],"id":21,"left_children":[1,3,5,7,9,-1,11,-1,-1,-1,-1,-1,-1],"loss_changes":[6.2834825E5,3.3078406E5,4.1814762E5,2.5547934E5,3.7152375E4,0E0,8.4269925E5,0E0,0E0,0E0,0E0,0E0,0E0],"parents":[2147483647,0,0,1,1,2,2,3,3,4,4,6,6],"right_children":[2,4,6,8,10,-1,12,-1,-1,-1,-1,-1,-1],"split_conditions":[1.6505E4,1.3702E4,1.7053E4,1.3195E4,1.6374E4,7.594178E1,1.9163E4,-3.6140667E1,4.1809456E1,-3.3924057E1,-8.963787E1,-7.829705E1,2.8901022E1],"split_indices":[1,1,1,1,1,0,1,0,0,0,0,0,0],"split_type":[0,0,0,0,0,0,0,0,0,0,0,0,0],"sum_hessian":[2.4E1,1.1E1,1.3E1,3E0,8E0,2E0,1.1E1,1E0,2E0,7E0,1E0,2E0,9E0],"tree_param":{"num_deleted":"0","num_feature":"2","num_nodes":"13","size_leaf_vector":"1"}},{"base_weights":[1.1125153E1,1.1481397E2,-1.0305026E2,-5.6736156E1,5.561631E1,-7.046737E1,1.7264414E1,5.876161E0,-4.3976994E1,2.8792234E1,-3.339936E1],"categories":[],"categories_nodes":[],"categories_segments":[],"categories_sizes":[],"default_left":[0,0,0,0,0,0,0,0,0,0,0],"id":22,"left_children":[1,3,5,7,-1,-1,9,-1,-1,-1,-1],"loss_changes":[2.959548E5,3.9568812E5,3.7211325E5,1.2533888E5,0E0,0E0,2.8153278E5,0E0,0E0,0E0,0E0],"parents":[2147483647,0,0,1,1,2,2,3,3,6,6],"right_children":[2,4,6,8,-1,-1,10,-1,-1,-1,-1],"split_conditions":[1.7053E4,1.4763E4,1.9163E4,1.4721E4,5.561631E1,-7.046737E1,1.9728E4,5.876161E0,-4.3976994E1,2.8792234E1,-3.339936E1],"split_indices":[1,1,1,1,0,0,1,0,0,0,0],"split_type":[0,0,0,0,0,0,0,0,0,0,0],"sum_hessian":[2.1E1,1.1E1,1E1,6E0,5E0,2E0,8E0,5E0,1E0,5E0,3E0],"tree_param":{"num_deleted":"0","num_feature":"2","num_nodes":"11","size_leaf_vector":"1"}},{"base_weights":[-1.0271336E2,-1.741612E2,2.6701202E2,-2.329579E2,-8.142957E1,6.035965E1,8.517813E0,-1.2982633E1,-7.168707E1,6.956834E1,-3.674145E1],"categories":[],"categories_nodes":[],"categories_segments":[],"categories_sizes":[],"default_left":[0,0,0,0,0,0,0,0,0,0,0],"id":23,"left_children":[1,3,5,7,9,-1,-1,-1,-1,-1,-1],"loss_changes":[7.798151E5,8.743244E4,1.3293094E4,2.2753906E5,6.5464406E5,0E0,0E0,0E0,0E0,0E0,0E0],"parents":[2147483647,0,0,1,1,2,2,3,3,4,4],"right_children":[2,4,6,8,10,-1,-1,-1,-1,-1,-1],"split_conditions":[1.9519188E4,1.6780188E4,1.9591438E4,1.51348125E4,1.7262375E4,6.035965E1,8.517813E0,-1.2982633E1,-7.168707E1,6.956834E1,-3.674145E1],"split_indices":[0,0,0,0,0,0,0,0,0,0,0],"split_type":[0,0,0,0,0,0,0,0,0,0,0],"sum_hessian":[2.4E1,2.1E1,3E0,1.1E1,1E1,2E0,1E0,6E0,5E0,1E0,9E0],"tree_param":{"num_deleted":"0","num_feature":"2","num_nodes":"11","size_leaf_vector":"1"}},{"base_weights":[5.3499866E1,-3.3257526E1,7.651915E1,7.194573E1,1.8065678E1,-3.42523E1,1.5834598E1],"categories":[],"categories_nodes":[],"categories_segments":[],"categories_sizes":[],"default_left":[0,0,0,0,0,0,0],"id":24,"left_children":[1,-1,3,-1,5,-1,-1],"loss_changes":[1.5192316E5,0E0,3.8427462E5,0E0,2.8163338E5,0E0,0E0],"parents":[2147483647,0,0,2,2,4,4],"right_children":[2,-1,4,-1,6,-1,-1],"split_conditions":[1.3195E4,-3.3257526E1,1.4721E4,7.194573E1,1.5778E4,-3.42523E1,1.5834598E1],"split_indices":[1,0,1,0,1,0,0],"split_type":[0,0,0,0,0,0,0],"sum_hessian":[2.3E1,1E0,2.2E1,2E0,2E1,4E0,1.6E1],"tree_param":{"num_deleted":"0","num_feature":"2","num_nodes":"7","size_leaf_vector":"1"}},{"base_weights":[-4.114787E1,-8.573671E1,6.2647106E1,-3.325276E1,-6.105262E1,-2.5545488E1,2.8075724E1],"categories":[],"categories_nodes":[],"categories_segments":[],"categories_sizes":[],"default_left":[0,0,0,0,0,0,0],"id":25,"left_children":[1,3,-1,5,-1,-1,-1],"loss_changes":[4.1712438E5,2.3313992E5,0E0,3.639345E5,0E0,0E0,0E0],"parents":[2147483647,0,0,1,1,3,3],"right_children":[2,4,-1,6,-1,-1,-1],"split_conditions":[1.9519188E4,1.8688938E4,6.2647106E1,1.6968125E4,-6.105262E1,-2.5545488E1,2.8075724E1],"split_indices":[0,0,0,0,0,0,0],"split_type":[0,0,0,0,0,0,0],"sum_hessian":[2.1E1,2E1,1E0,1.8E1,2E0,1.2E1,6E0],"tree_param":{"num_deleted":"0","num_feature":"2","num_nodes":"7","size_leaf_vector":"1"}},{"base_weights":[-3.719127E1,-1.7351645E2,1.5545966E2,-2.9396116E1,-2.922602E2,2.0063103E2,-2.3880762E1,-4.9152863E1,2.0525492E1,-6.396813E1,-6.6064844E0,6.20031E1,2.188832E1,-9.092813E0,2.7179427E0],"categories":[],"categories_nodes":[],"categories_segments":[],"categories_sizes":[],"default_left":[0,0,0,0,0,0,0,0,0,0,0,0,0,0,0],"id":26,"left_children":[1,3,5,7,9,11,13,-1,-1,-1,-1,-1,-1,-1,-1],"loss_changes":[6.8426756E5,2.3948606E5,9.871169E4,3.0754994E5,3.6031312E4,2.1873219E4,4.473821E3,0E0,0E0,0E0,0E0,0E0,0E0,0E0,0E0],"parents":[2147483647,0,0,1,1,2,2,3,3,4,4,5,5,6,6],"right_children":[2,4,6,8,10,12,14,-1,-1,-1,-1,-1,-1,-1,-1],"split_conditions":[1.6968125E4,1.51348125E4,1.9151562E4,1.400175E4,1.6780188E4,1.7262375E4,1.9375875E4,-4.9152863E1,2.0525492E1,-6.396813E1,-6.6064844E0,6.20031E1,2.188832E1,-9.092813E0,2.7179427E0],"split_indices":[0,0,0,0,0,0,0,0,0,0,0,0,0,0,0],"split_type":[0,0,0,0,0,0,0,0,0,0,0,0,0,0,0],"sum_hessian":[2.2E1,1.3E1,9E0,7E0,6E0,7E0,2E0,2E0,5E0,5E0,1E0,1E0,6E0,1E0,1E0],"tree_param":{"num_deleted":"0","num_feature":"2","num_nodes":"15","size_leaf_vector":"1"}},{"base_weights":[-4.9370335E1,5.4087036E1,-1.3839214E2,-1.1091465E2,1.5207993E2,-2.86277E2,7.3721356E0,9.6770935E0,-6.0501015E1,4.1557735E1,4.875492E0,-1.5585101E1,-8.071058E1,3.3203106E1,-1.7074654E1],"categories":[],"categories_nodes":[],"categories_segments":[],"categories_sizes":[],"default_left":[0,0,0,0,0,0,0,0,0,0,0,0,0,0,0],"id":27,"left_children":[1,3,5,7,9,11,13,-1,-1,-1,-1,-1,-1,-1,-1],"loss_changes":[2.4522788E5,2.439368E5,3.0603747E5,2.124214E5,5.387336E4,1.0809994E5,1.6077564E5,0E0,0E0,0E0,0E0,0E0,0E0,0E0,0E0],"parents":[2147483647,0,0,1,1,2,2,3,3,4,4,5,5,6,6],"right_children":[2,4,6,8,10,12,14,-1,-1,-1,-1,-1,-1,-1,-1],"split_conditions":[1.6061E4,1.4465E4,1.8657E4,1.3702E4,1.4914E4,1.7053E4,1.9631E4,9.6770935E0,-6.0501015E1,4.1557735E1,4.875492E0,-1.5585101E1,-8.071058E1,3.3203106E1,-1.7074654E1],"split_indices":[1,1,1,1,1,1,1,0,0,0,0,0,0,0,0],"split_type":[0,0,0,0,0,0,0,0,0,0,0,0,0,0,0],"sum_hessian":[2.3E1,1.1E1,1.2E1,4E0,7E0,5E0,7E0,3E0,1E0,4E0,3E0,3E0,2E0,2E0,5E0],"tree_param":{"num_deleted":"0","num_feature":"2","num_nodes":"15","size_leaf_vector":"1"}},{"base_weights":[-1.0886655E2,-2.297119E2,1.570056E2,-6.987801E1,-9.001852E1,5.7524776E1,2.5256924E2,9.231289E0,-5.438221E1,1.7847563E1,-2.1707814E0,6.3670155E1,3.6749742E0],"categories":[],"categories_nodes":[],"categories_segments":[],"categories_sizes":[],"default_left":[0,0,0,0,0,0,0,0,0,0,0,0,0],"id":28,"left_children":[1,3,5,-1,7,9,11,-1,-1,-1,-1,-1,-1],"loss_changes":[8.753746E5,2.3798112E5,5.647175E4,0E0,2.9758475E5,1.7124465E4,4.9889688E4,0E0,0E0,0E0,0E0,0E0,0E0],"parents":[2147483647,0,0,1,1,2,2,4,4,5,5,6,6],"right_children":[2,4,6,-1,8,10,12,-1,-1,-1,-1,-1,-1],"split_conditions":[1.813075E4,1.541625E4,1.9571375E4,-6.987801E1,1.7262375E4,1.8646438E4,1.9591438E4,9.231289E0,-5.438221E1,1.7847563E1,-2.1707814E0,6.3670155E1,3.6749742E0],"split_indices":[0,0,0,0,0,0,0,0,0,0,0,0,0],"split_type":[0,0,0,0,0,0,0,0,0,0,0,0,0],"sum_hessian":[2.3E1,1.6E1,7E0,7E0,9E0,5E0,2E0,6E0,3E0,3E0,2E0,1E0,1E0],"tree_param":{"num_deleted":"0","num_feature":"2","num_nodes":"13","size_leaf_vector":"1"}},{"base_weights":[-5.095694E1,-6.396887E1,2.700389E1,-1.7437284E1,2.3573282E2,4.132142E1,-1.30586E1,5.9425495E1,3.4299219E0],"categories":[],"categories_nodes":[],"categories_segments":[],"categories_sizes":[],"default_left":[0,0,0,0,0,0,0,0,0],"id":29,"left_children":[1,-1,3,5,7,-1,-1,-1,-1],"loss_changes":[5.623331E5,0E0,2.1231838E5,2.4140192E5,4.3456703E4,0E0,0E0,0E0,0E0],"parents":[2147483647,0,0,2,2,3,3,4,4],"right_children":[2,-1,4,6,8,-1,-1,-1,-1],"split_conditions":[1.4692625E4,-6.396887E1,1.9571375E4,1.51348125E4,1.9591438E4,4.132142E1,-1.30586E1,5.9425495E1,3.4299219E0],"split_indices":[0,0,0,0,0,0,0,0,0],"split_type":[0,0,0,0,0,0,0,0,0],"sum_hessian":[2.4E1,4E0,2E1,1.8E1,2E0,2E0,1.6E1,1E0,1E0],"tree_param":{"num_deleted":"0","num_feature":"2","num_nodes":"9","size_leaf_vector":"1"}},{"base_weights":[-5.4233696E1,-2.4008376E2,6.146442E1,-1.10888504E2,-7.568148E1,4.761893E1,-1.03912945E1,-4.182884E1,3.8453426E1,-1.7094233E1,4.400379E1],"categories":[],"categories_nodes":[],"categories_segments":[],"categories_sizes":[],"default_left":[0,0,0,0,0,0,0,0,0,0,0],"id":30,"left_children":[1,3,5,7,-1,-1,9,-1,-1,-1,-1],"loss_changes":[5.670936E5,9.473656E4,2.2073316E5,3.1871894E5,0E0,0E0,2.7978544E5,0E0,0E0,0E0,0E0],"parents":[2147483647,0,0,1,1,2,2,3,3,6,6],"right_children":[2,4,6,8,-1,-1,10,-1,-1,-1,-1],"split_conditions":[1.57783125E4,1.4895875E4,1.6558438E4,1.4692625E4,-7.568148E1,4.761893E1,1.9519188E4,-4.182884E1,3.8453426E1,-1.7094233E1,4.400379E1],"split_indices":[0,0,0,0,0,0,0,0,0,0,0],"split_type":[0,0,0,0,0,0,0,0,0,0,0],"sum_hessian":[2.3E1,8E0,1.5E1,6E0,2E0,3E0,1.2E1,5E0,1E0,1E1,2E0],"tree_param":{"num_deleted":"0","num_feature":"2","num_nodes":"11","size_leaf_vector":"1"}},{"base_weights":[-1.7118147E1,-8.97294E1,1.07693535E2,1.0471748E2,-2.4264232E2,4.2196705E1,-1.426263E1,-2.9231672E1,4.7415775E1,-5.469452E1,2.6E-1,-6.1051796E1,3.320405E1],"categories":[],"categories_nodes":[],"categories_segments":[],"categories_sizes":[],"default_left":[0,0,0,0,0,0,0,0,0,0,0,0,0],"id":31,"left_children":[1,3,5,7,9,-1,11,-1,-1,-1,-1,-1,-1],"loss_changes":[2.1870488E5,4.968332E5,1.1940967E5,3.349614E5,6.84255E4,0E0,4.1614222E5,0E0,0E0,0E0,0E0,0E0,0E0],"parents":[2147483647,0,0,1,1,2,2,3,3,4,4,6,6],"right_children":[2,4,6,8,10,-1,12,-1,-1,-1,-1,-1,-1],"split_conditions":[1.813075E4,1.51348125E4,1.895475E4,1.400175E4,1.808675E4,4.2196705E1,1.9519188E4,-2.9231672E1,4.7415775E1,-5.469452E1,2.6E-1,-6.1051796E1,3.320405E1],"split_indices":[0,0,0,0,0,0,0,0,0,0,0,0,0],"split_type":[0,0,0,0,0,0,0,0,0,0,0,0,0],"sum_hessian":[2E1,1.3E1,7E0,6E0,7E0,3E0,4E0,2E0,4E0,6E0,1E0,1E0,3E0],"tree_param":{"num_deleted":"0","num_feature":"2","num_nodes":"13","size_leaf_vector":"1"}},{"base_weights":[8.078917E1,-6.8627625E1,1.7959627E2,1.8127892E1,-6.2418854E1,5.8029438E1,1.0359233E2,-1.2620083E1,3.4309113E1,-2.6508772E1,3.5467667E1],"categories":[],"categories_nodes":[],"categories_segments":[],"categories_sizes":[],"default_left":[0,0,0,0,0,0,0,0,0,0,0],"id":32,"left_children":[1,3,5,7,-1,-1,9,-1,-1,-1,-1],"loss_changes":[3.789842E5,2.4368745E5,6.588109E4,1.4627861E5,0E0,0E0,2.559839E5,0E0,0E0,0E0,0E0],"parents":[2147483647,0,0,1,1,2,2,3,3,6,6],"right_children":[2,4,6,8,-1,-1,10,-1,-1,-1,-1],"split_conditions":[1.541625E4,1.51348125E4,1.6558438E4,1.4692625E4,-6.2418854E1,5.8029438E1,1.6968125E4,-1.2620083E1,3.4309113E1,-2.6508772E1,3.5467667E1],"split_indices":[0,0,0,0,0,0,0,0,0,0,0],"split_type":[0,0,0,0,0,0,0,0,0,0,0],"sum_hessian":[2.2E1,9E0,1.3E1,8E0,1E0,3E0,1E1,6E0,2E0,2E0,8E0],"tree_param":{"num_deleted":"0","num_feature":"2","num_nodes":"11","size_leaf_vector":"1"}},{"base_weights":[-3.822456E1,-2.2095242E2,4.3723057E1,-5.8943085E1,-5.6458553E1,1.6544026E2,-2.701586E1,-2.5046515E1,1.374099E1,-3.2414844E0,4.6281727E1,-5.3574886E1,1.0248611E1],"categories":[],"categories_nodes":[],"categories_segments":[],"categories_sizes":[],"default_left":[0,0,0,0,0,0,0,0,0,0,0,0,0],"id":33,"left_children":[1,3,5,7,-1,9,11,-1,-1,-1,-1,-1,-1],"loss_changes":[4.386143E5,5.6126812E4,1.8976584E5,5.9522453E4,0E0,1.0338661E5,3.1021503E5,0E0,0E0,0E0,0E0,0E0,0E0],"parents":[2147483647,0,0,1,1,2,2,3,3,5,5,6,6],"right_children":[2,4,6,8,-1,10,12,-1,-1,-1,-1,-1,-1],"split_conditions":[1.541625E4,1.4059625E4,1.7262375E4,1.400175E4,-5.6458553E1,1.57783125E4,1.808675E4,-2.5046515E1,1.374099E1,-3.2414844E0,4.6281727E1,-5.3574886E1,1.0248611E1],"split_indices":[0,0,0,0,0,0,0,0,0,0,0,0,0],"split_type":[0,0,0,0,0,0,0,0,0,0,0,0,0],"sum_hessian":[2.6E1,7E0,1.9E1,3E0,4E0,6E0,1.3E1,2E0,1E0,2E0,4E0,2E0,1.1E1],"tree_param":{"num_deleted":"0","num_feature":"2","num_nodes":"13","size_leaf_vector":"1"}},{"base_weights":[-6.4580215E1,8.981209E1,-1.1988411E2,-1.0533894E1,1.25229294E2,-1.6374844E2,3.703216E1,3.214971E1,3.6381154E0,-2.2925816E1,-6.0029274E1,1.3764427E1,6.250625E-1],"categories":[],"categories_nodes":[],"categories_segments":[],"categories_sizes":[],"default_left":[0,0,0,0,0,0,0,0,0,0,0,0,0],"id":34,"left_children":[1,3,5,-1,7,9,11,-1,-1,-1,-1,-1,-1],"loss_changes":[2.4353798E5,5.3569168E4,1.4980116E5,0E0,2.0747438E4,3.8344E4,6.03001E3,0E0,0E0,0E0,0E0,0E0,0E0],"parents":[2147483647,0,0,1,1,2,2,4,4,5,5,6,6],"right_children":[2,4,6,-1,8,10,12,-1,-1,-1,-1,-1,-1],"split_conditions":[1.5338E4,1.3195E4,1.9828E4,-1.0533894E1,1.4796E4,1.9728E4,1.9978E4,3.214971E1,3.6381154E0,-2.2925816E1,-6.0029274E1,1.3764427E1,6.250625E-1],"split_indices":[1,1,1,0,1,1,1,0,0,0,0,0,0],"split_type":[0,0,0,0,0,0,0,0,0,0,0,0,0],"sum_hessian":[2.4E1,6E0,1.8E1,1E0,5E0,1.4E1,4E0,3E0,2E0,1.3E1,1E0,1E0,3E0],"tree_param":{"num_deleted":"0","num_feature":"2","num_nodes":"13","size_leaf_vector":"1"}},{"base_weights":[1.1107142E2,1.6582904E2,-9.274436E1,6.631552E1,7.202215E1,-2.2003702E2,4.61675E1,2.3678694E1,-3.2421906E1,-2.6425521E0,-5.602732E1,1.2846849E1,1.9017384E0],"categories":[],"categories_nodes":[],"categories_segments":[],"categories_sizes":[],"default_left":[0,0,0,0,0,0,0,0,0,0,0,0,0],"id":35,"left_children":[1,3,5,7,-1,9,11,-1,-1,-1,-1,-1,-1],"loss_changes":[3.3209934E5,3.775358E5,1.441117E5,2.4061147E5,0E0,4.228811E4,2.082585E3,0E0,0E0,0E0,0E0,0E0,0E0],"parents":[2147483647,0,0,1,1,2,2,3,3,5,5,6,6],"right_children":[2,4,6,8,-1,10,12,-1,-1,-1,-1,-1,-1],"split_conditions":[1.9631E4,1.6962E4,1.9828E4,1.6374E4,7.202215E1,1.9673E4,1.9978E4,2.3678694E1,-3.2421906E1,-2.6425521E0,-5.602732E1,1.2846849E1,1.9017384E0],"split_indices":[1,1,1,1,0,1,1,0,0,0,0,0,0],"split_type":[0,0,0,0,0,0,0,0,0,0,0,0,0],"sum_hessian":[2.5E1,2E1,5E0,1.5E1,5E0,2E0,3E0,1.3E1,2E0,1E0,1E0,1E0,2E0],"tree_param":{"num_deleted":"0","num_feature":"2","num_nodes":"13","size_leaf_vector":"1"}},{"base_weights":[4.959381E1,-5.2298527E1,1.1345182E2,1.8667343E1,-5.0803814E1,3.9562336E1,7.313446E1,-1.21781645E1,3.3695004E1,-3.9843853E1,2.494831E1],"categories":[],"categories_nodes":[],"categories_segments":[],"categories_sizes":[],"default_left":[0,0,0,0,0,0,0,0,0,0,0],"id":36,"left_children":[1,3,5,7,-1,-1,9,-1,-1,-1,-1],"loss_changes":[1.7453889E5,1.6697527E5,2.545786E4,1.3971214E5,0E0,0E0,2.4646978E5,0E0,0E0,0E0,0E0],"parents":[2147483647,0,0,1,1,2,2,3,3,6,6],"right_children":[2,4,6,8,-1,-1,10,-1,-1,-1,-1],"split_conditions":[1.541625E4,1.51348125E4,1.6558438E4,1.4692625E4,-5.0803814E1,3.9562336E1,1.6780188E4,-1.21781645E1,3.3695004E1,-3.9843853E1,2.494831E1],"split_indices":[0,0,0,0,0,0,0,0,0,0,0],"split_type":[0,0,0,0,0,0,0,0,0,0,0],"sum_hessian":[2.3E1,9E0,1.4E1,8E0,1E0,2E0,1.2E1,6E0,2E0,1E0,1.1E1],"tree_param":{"num_deleted":"0","num_feature":"2","num_nodes":"11","size_leaf_vector":"1"}},{"base_weights":[-4.2853518E0,9.849705E1,-1.8104852E2,-4.6653255E1,1.434309E2,-4.812077E1,-1.3320625E1,1.653225E1,-4.622172E1,5.7278297E1,1.8459845E1,-6.811953E0,1.7738087E0],"categories":[],"categories_nodes":[],"categories_segments":[],"categories_sizes":[],"default_left":[0,0,0,0,0,0,0,0,0,0,0,0,0],"id":37,"left_children":[1,3,5,7,9,-1,11,-1,-1,-1,-1,-1,-1],"loss_changes":[5.4438175E5,1.373138E5,1.0344456E5,1.8133881E5,5.6741938E4,0E0,2.9076475E3,0E0,0E0,0E0,0E0,0E0,0E0],"parents":[2147483647,0,0,1,1,2,2,3,3,4,4,6,6],"right_children":[2,4,6,8,10,-1,12,-1,-1,-1,-1,-1,-1],"split_conditions":[1.8353E4,1.4465E4,1.9828E4,1.3702E4,1.4721E4,-4.812077E1,2.0209E4,1.653225E1,-4.622172E1,5.7278297E1,1.8459845E1,-6.811953E0,1.7738087E0],"split_indices":[1,1,1,1,1,0,1,0,0,0,0,0,0],"split_type":[0,0,0,0,0,0,0,0,0,0,0,0,0],"sum_hessian":[2.6E1,1.7E1,9E0,4E0,1.3E1,6E0,3E0,3E0,1E0,1E0,1.2E1,1E0,2E0],"tree_param":{"num_deleted":"0","num_feature":"2","num_nodes":"13","size_leaf_vector":"1"}},{"base_weights":[4.8806625E1,-4.7215755E1,6.9616234E1,7.274191E1,-4.3140274E1,1.9283658E2,1.3956521E1,-1.1700496E1,2.696585E1,5.3459743E1,1.8262E1,-1.1589145E1,1.9749342E1],"categories":[],"categories_nodes":[],"categories_segments":[],"categories_sizes":[],"default_left":[0,0,0,0,0,0,0,0,0,0,0,0,0],"id":38,"left_children":[1,3,5,7,-1,9,11,-1,-1,-1,-1,-1,-1],"loss_changes":[6.0527297E4,1.526622E5,1.5234008E5,5.652639E4,0E0,4.06925E3,1.2118686E5,0E0,0E0,0E0,0E0,0E0,0E0],"parents":[2147483647,0,0,1,1,2,2,3,3,5,5,6,6],"right_children":[2,4,6,8,-1,10,12,-1,-1,-1,-1,-1,-1],"split_conditions":[1.4465E4,1.3702E4,1.5338E4,1.3195E4,-4.3140274E1,1.4721E4,1.9163E4,-1.1700496E1,2.696585E1,5.3459743E1,1.8262E1,-1.1589145E1,1.9749342E1],"split_indices":[1,1,1,1,0,1,1,0,0,0,0,0,0],"split_type":[0,0,0,0,0,0,0,0,0,0,0,0,0],"sum_hessian":[2.5E1,4E0,2.1E1,3E0,1E0,5E0,1.6E1,1E0,2E0,1E0,4E0,9E0,7E0],"tree_param":{"num_deleted":"0","num_feature":"2","num_nodes":"13","size_leaf_vector":"1"}},{"base_weights":[3.2144646E1,-2.6850372E1,6.221448E1,2.1344034E2,2.1690462E1,7.015013E0,4.9895744E1,-2.334854E1,1.858042E1],"categories":[],"categories_nodes":[],"categories_segments":[],"categories_sizes":[],"default_left":[0,0,0,0,0,0,0,0,0],"id":39,"left_children":[1,-1,3,5,7,-1,-1,-1,-1],"loss_changes":[1.2677495E5,0E0,1.1328282E5,8.1825625E3,1.9913381E5,0E0,0E0,0E0,0E0],"parents":[2147483647,0,0,2,2,3,3,4,4],"right_children":[2,-1,4,6,8,-1,-1,-1,-1],"split_conditions":[1.400175E4,-2.6850372E1,1.42394375E4,1.4059625E4,1.57783125E4,7.015013E0,4.9895744E1,-2.334854E1,1.858042E1],"split_indices":[0,0,0,0,0,0,0,0,0],"split_type":[0,0,0,0,0,0,0,0,0],"sum_hessian":[2E1,2E0,1.8E1,2E0,1.6E1,1E0,1E0,5E0,1.1E1],"tree_param":{"num_deleted":"0","num_feature":"2","num_nodes":"9","size_leaf_vector":"1"}},{"base_weights":[-5.873063E1,-1.290068E2,5.1392147E1,-3.2676618E0,-1.9812463E2,1.1967405E2,-6.473937E1,-2.4165312E1,1.8413305E1,-5.518147E1,-1.3449498E1,9.21311E0,3.0364532E1,-5.330271E1,2.3787188E1],"categories":[],"categories_nodes":[],"categories_segments":[],"categories_sizes":[],"default_left":[0,0,0,0,0,0,0,0,0,0,0,0,0,0,0],"id":40,"left_children":[1,3,5,7,9,11,13,-1,-1,-1,-1,-1,-1,-1,-1],"loss_changes":[1.8352581E5,1.203565E5,9.479755E4,1.0070272E5,5.4477312E4,2.5575E3,2.4871547E5,0E0,0E0,0E0,0E0,0E0,0E0,0E0,0E0],"parents":[2147483647,0,0,1,1,2,2,3,3,4,4,5,5,6,6],"right_children":[2,4,6,8,10,12,14,-1,-1,-1,-1,-1,-1,-1,-1],"split_conditions":[1.849475E4,1.6347375E4,1.9151562E4,1.400175E4,1.7267062E4,1.8688938E4,1.9519188E4,-2.4165312E1,1.8413305E1,-5.518147E1,-1.3449498E1,9.21311E0,3.0364532E1,-5.330271E1,2.3787188E1],"split_indices":[0,0,0,0,0,0,0,0,0,0,0,0,0,0,0],"split_type":[0,0,0,0,0,0,0,0,0,0,0,0,0,0,0],"sum_hessian":[2E1,1.2E1,8E0,5E0,7E0,5E0,3E0,2E0,3E0,3E0,4E0,3E0,2E0,1E0,2E0],"tree_param":{"num_deleted":"0","num_feature":"2","num_nodes":"15","size_leaf_vector":"1"}},{"base_weights":[1.8972498E1,5.664717E1,-4.5191097E1,-6.738045E1,1.0291173E2,1.0831628E1,-4.320462E1,9.521367E0,2.5446022E1],"categories":[],"categories_nodes":[],"categories_segments":[],"categories_sizes":[],"default_left":[0,0,0,0,0,0,0,0,0],"id":41,"left_children":[1,3,-1,5,7,-1,-1,-1,-1],"loss_changes":[2.7472725E5,1.5732411E5,0E0,1.6794153E5,1.34220625E4,0E0,0E0,0E0,0E0],"parents":[2147483647,0,0,1,1,3,3,4,4],"right_children":[2,4,-1,6,8,-1,-1,-1,-1],"split_conditions":[1.9375875E4,1.4692625E4,-4.5191097E1,1.42394375E4,1.6968125E4,1.0831628E1,-4.320462E1,9.521367E0,2.5446022E1],"split_indices":[0,0,0,0,0,0,0,0,0],"split_type":[0,0,0,0,0,0,0,0,0],"sum_hessian":[2.5E1,2.3E1,2E0,6E0,1.7E1,4E0,2E0,7E0,1E1],"tree_param":{"num_deleted":"0","num_feature":"2","num_nodes":"9","size_leaf_vector":"1"}},{"base_weights":[-1.0971593E1,8.5629944E1,-6.0664864E1,-6.0794453E1,3.3153477E1,-2.599558E1,-1.4732062E2,1.2587529E1,-3.7054855E1,-1.745699E1,1.5545859E1,-4.673643E1,-1.7728322E0],"categories":[],"categories_nodes":[],"categories_segments":[],"categories_sizes":[],"default_left":[0,0,0,0,0,0,0,0,0,0,0,0,0],"id":42,"left_children":[1,3,5,7,-1,9,11,-1,-1,-1,-1,-1,-1],"loss_changes":[1.3999902E5,1.3750672E5,4.9404867E4,1.0034444E5,0E0,1.1528586E5,5.5619523E4,0E0,0E0,0E0,0E0,0E0,0E0],"parents":[2147483647,0,0,1,1,2,2,3,3,5,5,6,6],"right_children":[2,4,6,8,-1,10,12,-1,-1,-1,-1,-1,-1],"split_conditions":[1.5338E4,1.4465E4,1.9728E4,1.3702E4,3.3153477E1,1.8657E4,1.9828E4,1.2587529E1,-3.7054855E1,-1.745699E1,1.5545859E1,-4.673643E1,-1.7728322E0],"split_indices":[1,1,1,1,0,1,1,0,0,0,0,0,0],"split_type":[0,0,0,0,0,0,0,0,0,0,0,0,0],"sum_hessian":[2.5E1,8E0,1.7E1,3E0,5E0,1.4E1,3E0,2E0,1E0,9E0,5E0,1E0,2E0],"tree_param":{"num_deleted":"0","num_feature":"2","num_nodes":"13","size_leaf_vector":"1"}},{"base_weights":[1.4532143E1,-2.8936E1,4.5216E1,1.9223015E1,-1.18834915E2,-1.4939403E1,3.7633583E1,-5.0526398E1,-1.6824665E0],"categories":[],"categories_nodes":[],"categories_segments":[],"categories_sizes":[],"default_left":[0,0,0,0,0,0,0,0,0],"id":43,"left_children":[1,3,-1,5,7,-1,-1,-1,-1],"loss_changes":[2.7058E5,1.1281477E5,0E0,3.1373406E5,1.2869141E5,0E0,0E0,0E0,0E0],"parents":[2147483647,0,0,1,1,3,3,4,4],"right_children":[2,4,-1,6,8,-1,-1,-1,-1],"split_conditions":[1.8688938E4,1.7262375E4,4.5216E1,1.57783125E4,1.808675E4,-1.4939403E1,3.7633583E1,-5.0526398E1,-1.6824665E0],"split_indices":[0,0,0,0,0,0,0,0,0],"split_type":[0,0,0,0,0,0,0,0,0],"sum_hessian":[2.6E1,2.3E1,3E0,1.6E1,7E0,1.1E1,5E0,2E0,5E0],"tree_param":{"num_deleted":"0","num_feature":"2","num_nodes":"9","size_leaf_vector":"1"}},{"base_weights":[-3.493617E1,5.7847324E1,-1.10697044E2,-2.9309668E1,1.0310814E2,-1.8996121E2,6.1369143E0,1.3114829E1,-3.358858E1,4.340544E1,6.91979E0,-8.888267E0,-4.9578144E1,1.8723223E1,-1.0842305E1],"categories":[],"categories_nodes":[],"categories_segments":[],"categories_sizes":[],"default_left":[0,0,0,0,0,0,0,0,0,0,0,0,0,0,0],"id":44,"left_children":[1,3,5,7,9,11,13,-1,-1,-1,-1,-1,-1,-1,-1],"loss_changes":[1.9557566E5,5.7333867E4,1.4126112E5,1.0095995E5,5.5197547E4,5.3806656E4,5.238795E4,0E0,0E0,0E0,0E0,0E0,0E0,0E0,0E0],"parents":[2147483647,0,0,1,1,2,2,3,3,4,4,5,5,6,6],"right_children":[2,4,6,8,10,12,14,-1,-1,-1,-1,-1,-1,-1,-1],"split_conditions":[1.6061E4,1.4465E4,1.9163E4,1.3702E4,1.4721E4,1.6374E4,1.9631E4,1.3114829E1,-3.358858E1,4.340544E1,6.91979E0,-8.888267E0,-4.9578144E1,1.8723223E1,-1.0842305E1],"split_indices":[1,1,1,1,1,1,1,0,0,0,0,0,0,0,0],"split_type":[0,0,0,0,0,0,0,0,0,0,0,0,0,0,0],"sum_hessian":[2.4E1,1.1E1,1.3E1,4E0,7E0,7E0,6E0,3E0,1E0,1E0,6E0,3E0,4E0,2E0,4E0],"tree_param":{"num_deleted":"0","num_feature":"2","num_nodes":"15","size_leaf_vector":"1"}},{"base_weights":[-6.9274025E1,-1.0865454E1,-1.3559811E2,-8.3800896E1,4.9963264E1,-5.4243343E1,-5.4221054E1,7.538965E-1,-3.008671E1,1.7135063E1,-2.7733917E1],"categories":[],"categories_nodes":[],"categories_segments":[],"categories_sizes":[],"default_left":[0,0,0,0,0,0,0,0,0,0,0],"id":45,"left_children":[1,3,5,7,-1,-1,9,-1,-1,-1,-1],"loss_changes":[9.775995E4,3.4606006E5,1.0299105E5,8.283943E4,0E0,0E0,1.4190684E5,0E0,0E0,0E0,0E0],"parents":[2147483647,0,0,1,1,2,2,3,3,6,6],"right_children":[2,4,6,8,-1,-1,10,-1,-1,-1,-1],"split_conditions":[1.7053E4,1.6505E4,1.8657E4,1.4796E4,4.9963264E1,-5.4243343E1,1.9631E4,7.538965E-1,-3.008671E1,1.7135063E1,-2.7733917E1],"split_indices":[1,1,1,1,0,0,1,0,0,0,0],"split_type":[0,0,0,0,0,0,0,0,0,0,0],"sum_hessian":[2.4E1,1.4E1,1E1,1.2E1,2E0,2E0,8E0,6E0,6E0,3E0,5E0],"tree_param":{"num_deleted":"0","num_feature":"2","num_nodes":"11","size_leaf_vector":"1"}},{"base_weights":[-2.923418E1,2.1792027E1,-9.665727E1,-2.6038427E1,5.247862E1,-3.5242218E1,-4.5494297E1,2.5857892E0,-4.0709934E1,1.5078891E1,-2.3771864E1],"categories":[],"categories_nodes":[],"categories_segments":[],"categories_sizes":[],"default_left":[0,0,0,0,0,0,0,0,0,0,0],"id":46,"left_children":[1,3,5,7,-1,-1,9,-1,-1,-1,-1],"loss_changes":[9.710951E4,2.0932525E5,3.278715E4,1.1595678E5,0E0,0E0,1.0661707E5,0E0,0E0,0E0,0E0],"parents":[2147483647,0,0,1,1,2,2,3,3,6,6],"right_children":[2,4,6,8,-1,-1,10,-1,-1,-1,-1],"split_conditions":[1.7053E4,1.6505E4,1.9163E4,1.6374E4,5.247862E1,-3.5242218E1,1.9631E4,2.5857892E0,-4.0709934E1,1.5078891E1,-2.3771864E1],"split_indices":[1,1,1,1,0,0,1,0,0,0,0],"split_type":[0,0,0,0,0,0,0,0,0,0,0],"sum_hessian":[2.5E1,1.5E1,1E1,1.4E1,1E0,2E0,8E0,1.3E1,1E0,3E0,5E0],"tree_param":{"num_deleted":"0","num_feature":"2","num_nodes":"11","size_leaf_vector":"1"}},{"base_weights":[-6.666336E1,-1.4164809E2,3.6640976E1,-4.961685E1,-3.863883E1,1.3714717E2,-1.826669E2,-2.4960869E1,6.0719767E0,4.9483307E1,1.0137936E1,-4.247862E1,-6.2258854E0],"categories":[],"categories_nodes":[],"categories_segments":[],"categories_sizes":[],"default_left":[0,0,0,0,0,0,0,0,0,0,0,0,0],"id":47,"left_children":[1,3,5,7,-1,9,11,-1,-1,-1,-1,-1,-1],"loss_changes":[1.6531569E5,3.7730516E4,2.7051794E5,4.9680285E4,0E0,5.115617E4,4.770828E3,0E0,0E0,0E0,0E0,0E0,0E0],"parents":[2147483647,0,0,1,1,2,2,3,3,5,5,6,6],"right_children":[2,4,6,8,-1,10,12,-1,-1,-1,-1,-1,-1],"split_conditions":[1.8333E4,1.5338E4,1.9728E4,1.4763E4,-3.863883E1,1.8353E4,1.9828E4,-2.4960869E1,6.0719767E0,4.9483307E1,1.0137936E1,-4.247862E1,-6.2258854E0],"split_indices":[1,1,1,1,0,1,1,0,0,0,0,0,0],"split_type":[0,0,0,0,0,0,0,0,0,0,0,0,0],"sum_hessian":[1.8E1,1E1,8E0,5E0,5E0,6E0,2E0,2E0,3E0,1E0,5E0,1E0,1E0],"tree_param":{"num_deleted":"0","num_feature":"2","num_nodes":"13","size_leaf_vector":"1"}},{"base_weights":[-2.6596663E1,7.629529E1,-6.170984E1,-1.5855078E1,4.1953167E1,-2.1397785E1,-9.317968E0,1.4135531E1,-2.9907917E1,4.618448E1,-1.5907297E1],"categories":[],"categories_nodes":[],"categories_segments":[],"categories_sizes":[],"default_left":[0,0,0,0,0,0,0,0,0,0,0],"id":48,"left_children":[1,3,5,7,-1,-1,9,-1,-1,-1,-1],"loss_changes":[9.6123586E4,9.276659E4,4.306739E4,9.055461E4,0E0,0E0,2.222809E5,0E0,0E0,0E0,0E0],"parents":[2147483647,0,0,1,1,2,2,3,3,6,6],"right_children":[2,4,6,8,-1,-1,10,-1,-1,-1,-1],"split_conditions":[1.4721E4,1.4465E4,1.8333E4,1.3702E4,4.1953167E1,-2.1397785E1,1.8353E4,1.4135531E1,-2.9907917E1,4.618448E1,-1.5907297E1],"split_indices":[1,1,1,1,0,0,1,0,0,0,0],"split_type":[0,0,0,0,0,0,0,0,0,0,0],"sum_hessian":[2.2E1,5E0,1.7E1,4E0,1E0,8E0,9E0,3E0,1E0,1E0,8E0],"tree_param":{"num_deleted":"0","num_feature":"2","num_nodes":"11","size_leaf_vector":"1"}},{"base_weights":[1.9678328E1,-1.15751564E2,1.1637647E2,-2.8549265E1,-4.565716E1,2.1108438E2,6.9323814E1,2.481306E1,-2.5849554E1,3.2999742E0,5.2982525E1,-5.361345E0,2.7223917E1],"categories":[],"categories_nodes":[],"categories_segments":[],"categories_sizes":[],"default_left":[0,0,0,0,0,0,0,0,0,0,0,0,0],"id":49,"left_children":[1,3,5,-1,7,9,11,-1,-1,-1,-1,-1,-1],"loss_changes":[3.4124125E5,7.7603594E3,3.7549484E4,0E0,1.1719407E5,3.312639E4,9.078325E4,0E0,0E0,0E0,0E0,0E0,0E0],"parents":[2147483647,0,0,1,1,2,2,4,4,5,5,6,6],"right_children":[2,4,6,-1,8,10,12,-1,-1,-1,-1,-1,-1],"split_conditions":[1.6780188E4,1.4692625E4,1.7262375E4,-2.8549265E1,1.4895875E4,1.6968125E4,1.8646438E4,2.481306E1,-2.5849554E1,3.2999742E0,5.2982525E1,-5.361345E0,2.7223917E1],"split_indices":[0,0,0,0,0,0,0,0,0,0,0,0,0],"split_type":[0,0,0,0,0,0,0,0,0,0,0,0,0],"sum_hessian":[2.2E1,9E0,1.3E1,5E0,4E0,2E0,1.1E1,1E0,3E0,1E0,1E0,5E0,6E0],"tree_param":{"num_deleted":"0","num_feature":"2","num_nodes":"13","size_leaf_vector":"1"}}]},"name":"gbtree"},"learner_model_param":{"base_score":"1.6883156E4","boost_from_average":"1","num_class":"0","num_feature":"2","num_target":"1"},"objective":{"name":"reg:squarederror","reg_loss_param":{"scale_pos_weight":"1"}}},"version":[2,1,0]}