{"learner":{"attributes":{"scikit_learn":"{\"_estimator_type\": \"regressor\"}"},"feature_names":["trend_lag_1","SGandA_lag_1"],"feature_types":["float","float"],"gradient_booster":{"model":{"gbtree_model_param":{"num_parallel_tree":"1","num_trees":"50"},"iteration_indptr":[0,1,2,3,4,5,6,7,8,9,10,11,12,13,14,15,16,17,18,19,20,21,22,23,24,25,26,27,28,29,30,31,32,33,34,35,36,37,38,39,40,41,42,43,44,45,46,47,48,49,50],"tree_info":[0,0,0,0,0,0,0,0,0,0,0,0,0,0,0,0,0,0,0,0,0,0,0,0,0,0,0,0,0,0,0,0,0,0,0,0,0,0,0,0,0,0,0,0,0,0,0,0,0,0],"trees":[{"base_weights":[-7.346591E1,-1.0391072E2,1.1315E2],"categories":[],"categories_nodes":[],"categories_segments":[],"categories_sizes":[],"default_left":[0,0,0],"id":0,"left_children":[1,-1,-1],"loss_changes":[3.4305468E6,0E0,0E0],"parents":[2147483647,0,0],"right_children":[2,-1,-1],"split_conditions":[1.028E3,-1.0391072E2,1.1315E2],"split_indices":[1,0,0],"split_type":[0,0,0],"sum_hessian":[1E1,6E0,4E0],"tree_param":{"num_deleted":"0","num_feature":"2","num_nodes":"3","size_leaf_vector":"1"}},{"base_weights":[-9.0940704E1,-3.267798E2,3.1728122E2,-8.609744E1,-1.2719378E1,7.4537477E0,7.3166E1],"categories":[],"categories_nodes":[],"categories_segments":[],"categories_sizes":[],"default_left":[0,0,0,0,0,0,0],"id":1,"left_children":[1,3,5,-1,-1,-1,-1],"loss_changes":[1.5478016E6,2.455625E5,6.79315E4,0E0,0E0,0E0,0E0],"parents":[2147483647,0,0,1,1,2,2],"right_children":[2,4,6,-1,-1,-1,-1],"split_conditions":[1.649E3,1.028E3,1.771E3,-8.609744E1,-1.2719378E1,7.4537477E0,7.3166E1],"split_indices":[1,1,1,0,0,0,0],"split_type":[0,0,0,0,0,0,0],"sum_hessian":[1.4E1,9E0,5E0,6E0,3E0,1E0,4E0],"tree_param":{"num_deleted":"0","num_feature":"2","num_nodes":"7","size_leaf_vector":"1"}},{"base_weights":[-1.4270714E2,-2.7092285E2,3.3224765E2,-7.133788E1,-5.3100647E1,1.9037146E1,8.0637146E1,-1.2099089E1,-3.091626E0],"categories":[],"categories_nodes":[],"categories_segments":[],"categories_sizes":[],"default_left":[0,0,0,0,0,0,0,0,0],"id":2,"left_children":[1,3,5,-1,7,-1,-1,-1,-1],"loss_changes":[8.2077344E5,1.6787819E5,1.2072656E4,0E0,1.7828906E2,0E0,0E0,0E0,0E0],"parents":[2147483647,0,0,1,1,2,2,4,4],"right_children":[2,4,6,-1,8,-1,-1,-1,-1],"split_conditions":[1.735875E3,1.2690625E3,1.972125E3,-7.133788E1,1.4758125E3,1.9037146E1,8.0637146E1,-1.2099089E1,-3.091626E0],"split_indices":[0,0,0,0,0,0,0,0,0],"split_type":[0,0,0,0,0,0,0,0,0],"sum_hessian":[1.1E1,9E0,2E0,6E0,3E0,1E0,1E0,2E0,1E0],"tree_param":{"num_deleted":"0","num_feature":"2","num_nodes":"9","size_leaf_vector":"1"}},{"base_weights":[-8.56791E1,-2.1599469E2,4.5790157E1,-5.916107E1,-4.228003E1,-1.0964404E1,-3.9650714E0],"categories":[],"categories_nodes":[],"categories_segments":[],"categories_sizes":[],"default_left":[0,0,0,0,0,0,0],"id":3,"left_children":[1,3,-1,-1,5,-1,-1],"loss_changes":[5.414663E5,1.12271875E5,0E0,0E0,3.963916E1,0E0,0E0],"parents":[2147483647,0,0,1,1,4,4],"right_children":[2,4,-1,-1,6,-1,-1],"split_conditions":[1.735875E3,1.177125E3,4.5790157E1,-5.916107E1,1.4758125E3,-1.0964404E1,-3.9650714E0],"split_indices":[0,0,0,0,0,0,0],"split_type":[0,0,0,0,0,0,0],"sum_hessian":[1.1E1,8E0,3E0,5E0,3E0,1E0,2E0],"tree_param":{"num_deleted":"0","num_feature":"2","num_nodes":"7","size_leaf_vector":"1"}},{"base_weights":[5.0961447E0,-1.5468077E2,2.9167535E2,-4.820887E1,-3.7381054E1,1.7232561E1,7.999256E1,-9.023959E0,-3.4363935E0],"categories":[],"categories_nodes":[],"categories_segments":[],"categories_sizes":[],"default_left":[0,0,0,0,0,0,0,0,0],"id":4,"left_children":[1,3,5,-1,7,-1,-1,-1,-1],"loss_changes":[6.4037025E5,8.216328E4,7.681025E4,0E0,6.3305664E0,0E0,0E0,0E0,0E0],"parents":[2147483647,0,0,1,1,2,2,4,4],"right_children":[2,4,6,-1,8,-1,-1,-1,-1],"split_conditions":[1.735875E3,1.177125E3,2.0935E3,-4.820887E1,1.4758125E3,1.7232561E1,7.999256E1,-9.023959E0,-3.4363935E0],"split_indices":[0,0,0,0,0,0,0,0,0],"split_type":[0,0,0,0,0,0,0,0,0],"sum_hessian":[1.2E1,8E0,4E0,4E0,4E0,2E0,2E0,2E0,2E0],"tree_param":{"num_deleted":"0","num_feature":"2","num_nodes":"9","size_leaf_vector":"1"}},{"base_weights":[-2.070104E1,-1.2187285E2,2.3740375E2,-4.167071E1,-2.9493448E1,1.1571167E1,5.5593555E1,-7.0780764E0,-2.3599448E0],"categories":[],"categories_nodes":[],"categories_segments":[],"categories_sizes":[],"default_left":[0,0,0,0,0,0,0,0,0],"id":5,"left_children":[1,3,5,-1,7,-1,-1,-1,-1],"loss_changes":[3.6840112E5,7.374531E4,1.30506875E4,0E0,2.0843506E2,0E0,0E0,0E0,0E0],"parents":[2147483647,0,0,1,1,2,2,4,4],"right_children":[2,4,6,-1,8,-1,-1,-1,-1],"split_conditions":[1.771E3,1.028E3,2.029E3,-4.167071E1,1.649E3,1.1571167E1,5.5593555E1,-7.0780764E0,-2.3599448E0],"split_indices":[1,1,1,0,1,0,0,0,0],"split_type":[0,0,0,0,0,0,0,0,0],"sum_hessian":[1.2E1,9E0,3E0,4E0,5E0,1E0,2E0,3E0,2E0],"tree_param":{"num_deleted":"0","num_feature":"2","num_nodes":"9","size_leaf_vector":"1"}},{"base_weights":[1.1854309E1,-1.2688834E2,2.1799257E2,-3.4320984E1,-2.80914E1,1.8961958E1,6.1914425E1,-3.3249836E1,-1.261609E0,-1.7171875E0,-8.257764E0],"categories":[],"categories_nodes":[],"categories_segments":[],"categories_sizes":[],"default_left":[0,0,0,0,0,0,0,0,0,0,0],"id":6,"left_children":[1,3,5,-1,7,-1,-1,9,-1,-1,-1],"loss_changes":[4.2806312E5,3.4940125E4,3.8335656E4,0E0,2.3973071E2,0E0,0E0,2.403147E2,0E0,0E0,0E0],"parents":[2147483647,0,0,1,1,2,2,4,4,7,7],"right_children":[2,4,6,-1,8,-1,-1,10,-1,-1,-1],"split_conditions":[1.771E3,1.025E3,2.21E3,-3.4320984E1,1.649E3,1.8961958E1,6.1914425E1,1.624E3,-1.261609E0,-1.7171875E0,-8.257764E0],"split_indices":[1,1,1,0,1,0,0,1,0,0,0],"split_type":[0,0,0,0,0,0,0,0,0,0,0],"sum_hessian":[1.3E1,8E0,5E0,5E0,3E0,3E0,2E0,2E0,1E0,1E0,1E0],"tree_param":{"num_deleted":"0","num_feature":"2","num_nodes":"11","size_leaf_vector":"1"}},{"base_weights":[-2.4190298E1,-9.8346146E1,1.2895944E2,-2.860083E1,-2.5087305E1,1.0863811E1,3.2122673E1,-3.1060099E1,-2.1504152E0,-1.8860474E0,-7.4319825E0],"categories":[],"categories_nodes":[],"categories_segments":[],"categories_sizes":[],"default_left":[0,0,0,0,0,0,0,0,0,0,0],"id":7,"left_children":[1,3,5,-1,7,-1,-1,9,-1,-1,-1],"loss_changes":[1.7167995E5,2.9128352E4,3.0889453E3,0E0,9.4146484E1,0E0,0E0,4.5387207E1,0E0,0E0,0E0],"parents":[2147483647,0,0,1,1,2,2,4,4,7,7],"right_children":[2,4,6,-1,8,-1,-1,10,-1,-1,-1],"split_conditions":[1.735875E3,1.177125E3,2.0935E3,-2.860083E1,1.4758125E3,1.0863811E1,3.2122673E1,1.3650625E3,-2.1504152E0,-1.8860474E0,-7.4319825E0],"split_indices":[0,0,0,0,0,0,0,0,0,0,0],"split_type":[0,0,0,0,0,0,0,0,0,0,0],"sum_hessian":[1.3E1,9E0,4E0,5E0,4E0,2E0,2E0,2E0,2E0,1E0,1E0],"tree_param":{"num_deleted":"0","num_feature":"2","num_nodes":"11","size_leaf_vector":"1"}},{"base_weights":[-4.2297318E1,-1.16150734E2,3.860565E1,-2.5200665E1,-6.6887817E0,-2.457959E0,1.3425165E1],"categories":[],"categories_nodes":[],"categories_segments":[],"categories_sizes":[],"default_left":[0,0,0,0,0,0,0],"id":8,"left_children":[1,3,5,-1,-1,-1,-1],"loss_changes":[7.020864E4,6.7521094E2,9.534245E3,0E0,0E0,0E0,0E0],"parents":[2147483647,0,0,1,1,2,2],"right_children":[2,4,6,-1,-1,-1,-1],"split_conditions":[1.649E3,9.89E2,1.771E3,-2.5200665E1,-6.6887817E0,-2.457959E0,1.3425165E1],"split_indices":[1,1,1,0,0,0,0],"split_type":[0,0,0,0,0,0,0],"sum_hessian":[1E1,5E0,5E0,4E0,1E0,2E0,3E0],"tree_param":{"num_deleted":"0","num_feature":"2","num_nodes":"7","size_leaf_vector":"1"}},{"base_weights":[-1.4499259E1,-8.681138E1,1.3302483E2,-2.3701284E1,-1.9284424E0,1.1411395E1,4.3689625E1],"categories":[],"categories_nodes":[],"categories_segments":[],"categories_sizes":[],"default_left":[0,0,0,0,0,0,0],"id":9,"left_children":[1,3,5,-1,-1,-1,-1],"loss_changes":[1.6089697E5,2.3316133E4,1.9983133E4,0E0,0E0,0E0,0E0],"parents":[2147483647,0,0,1,1,2,2],"right_children":[2,4,6,-1,-1,-1,-1],"split_conditions":[1.771E3,1.028E3,2.21E3,-2.3701284E1,-1.9284424E0,1.1411395E1,4.3689625E1],"split_indices":[1,1,1,0,0,0,0],"split_type":[0,0,0,0,0,0,0],"sum_hessian":[1.3E1,9E0,4E0,6E0,3E0,3E0,1E0],"tree_param":{"num_deleted":"0","num_feature":"2","num_nodes":"7","size_leaf_vector":"1"}},{"base_weights":[2.0639105E0,-4.682892E1,3.9320656E1,-1.5916826E1,5.8223267E0,-1.745931E0,4.9478273E0],"categories":[],"categories_nodes":[],"categories_segments":[],"categories_sizes":[],"default_left":[0,0,0,0,0,0,0],"id":10,"left_children":[1,3,-1,-1,5,-1,-1],"loss_changes":[9.481094E4,1.4260186E4,0E0,0E0,1.3170724E3,0E0,0E0],"parents":[2147483647,0,0,1,1,4,4],"right_children":[2,4,-1,-1,6,-1,-1],"split_conditions":[2.029E3,1.025E3,3.9320656E1,-1.5916826E1,1.771E3,-1.745931E0,4.9478273E0],"split_indices":[1,1,0,0,1,0,0],"split_type":[0,0,0,0,0,0,0],"sum_hessian":[8E0,7E0,1E0,4E0,3E0,2E0,1E0],"tree_param":{"num_deleted":"0","num_feature":"2","num_nodes":"7","size_leaf_vector":"1"}},{"base_weights":[-2.293861E1,-6.923222E1,7.538327E1,-1.8985449E1,-1.980539E1,4.4530396E0,1.7133512E1,-6.611206E-1,-4.84069E0],"categories":[],"categories_nodes":[],"categories_segments":[],"categories_sizes":[],"default_left":[0,0,0,0,0,0,0,0,0],"id":11,"left_children":[1,3,5,-1,7,-1,-1,-1,-1],"loss_changes":[5.5287375E4,8.280121E3,2.777246E2,0E0,2.1026123E2,0E0,0E0,0E0,0E0],"parents":[2147483647,0,0,1,1,2,2,4,4],"right_children":[2,4,6,-1,8,-1,-1,-1,-1],"split_conditions":[1.771E3,1.028E3,2.029E3,-1.8985449E1,1.562E3,4.4530396E0,1.7133512E1,-6.611206E-1,-4.84069E0],"split_indices":[1,1,1,0,1,0,0,0,0],"split_type":[0,0,0,0,0,0,0,0,0],"sum_hessian":[1E1,7E0,3E0,4E0,3E0,1E0,2E0,1E0,2E0],"tree_param":{"num_deleted":"0","num_feature":"2","num_nodes":"9","size_leaf_vector":"1"}},{"base_weights":[1.7842886E1,-2.9939026E1,3.4233658E1,-4.6518127E1,4.8503175E0,-1.2879974E1,-4.5818214E0],"categories":[],"categories_nodes":[],"categories_segments":[],"categories_sizes":[],"default_left":[0,0,0,0,0,0,0],"id":12,"left_children":[1,3,-1,5,-1,-1,-1],"loss_changes":[9.303878E4,1.0112456E4,0E0,1.9020176E3,0E0,0E0,0E0],"parents":[2147483647,0,0,1,1,3,3],"right_children":[2,4,-1,6,-1,-1,-1],"split_conditions":[2.029E3,1.649E3,3.4233658E1,9.7E2,4.8503175E0,-1.2879974E1,-4.5818214E0],"split_indices":[1,1,0,1,0,0,0],"split_type":[0,0,0,0,0,0,0],"sum_hessian":[1.1E1,9E0,2E0,7E0,2E0,3E0,4E0],"tree_param":{"num_deleted":"0","num_feature":"2","num_nodes":"7","size_leaf_vector":"1"}},{"base_weights":[9.209867E0,-3.819212E1,2.9669174E1,-1.525035E1,7.505933E0,-6.822917E-1,2.638436E0,6.4814454E-1,-8.52832E-1],"categories":[],"categories_nodes":[],"categories_segments":[],"categories_sizes":[],"default_left":[0,0,0,0,0,0,0,0,0],"id":13,"left_children":[1,3,-1,-1,5,7,-1,-1,-1],"loss_changes":[7.8214195E4,1.6225599E4,0E0,0E0,2.4180219E2,5.5974125E1,0E0,0E0,0E0],"parents":[2147483647,0,0,1,1,4,4,5,5],"right_children":[2,4,-1,-1,6,8,-1,-1,-1],"split_conditions":[2.21E3,1.028E3,2.9669174E1,-1.525035E1,1.673E3,1.624E3,2.638436E0,6.4814454E-1,-8.52832E-1],"split_indices":[1,1,0,0,1,1,0,0,0],"split_type":[0,0,0,0,0,0,0,0,0],"sum_hessian":[1E1,8E0,2E0,4E0,4E0,2E0,2E0,1E0,1E0],"tree_param":{"num_deleted":"0","num_feature":"2","num_nodes":"9","size_leaf_vector":"1"}},{"base_weights":[-7.7678223E0,-2.7529243E1,7.727466E0,-9.675928E0,-1.4660609E1,-7.491394E0,-3.6329346E0,-2.8069458E0,-6.3203937E-1,1.2036133E-2,-2.0164795E-1],"categories":[],"categories_nodes":[],"categories_segments":[],"categories_sizes":[],"default_left":[0,0,0,0,0,0,0,0,0,0,0],"id":14,"left_children":[1,3,-1,-1,5,7,-1,-1,9,-1,-1],"loss_changes":[1.2068037E4,1.7055703E3,0E0,0E0,3.9770996E1,1.7066173E2,0E0,0E0,8.419169E-1,0E0,0E0],"parents":[2147483647,0,0,1,1,4,4,5,5,8,8],"right_children":[2,4,-1,-1,6,8,-1,-1,10,-1,-1],"split_conditions":[1.85925E3,9.270625E2,7.727466E0,-9.675928E0,1.3650625E3,9.93375E2,-3.6329346E0,-2.8069458E0,1.177125E3,1.2036133E-2,-2.0164795E-1],"split_indices":[0,0,0,0,0,0,0,0,0,0,0],"split_type":[0,0,0,0,0,0,0,0,0,0,0],"sum_hessian":[1.1E1,8E0,3E0,2E0,6E0,3E0,3E0,1E0,2E0,1E0,1E0],"tree_param":{"num_deleted":"0","num_feature":"2","num_nodes":"11","size_leaf_vector":"1"}},{"base_weights":[2.0322098E1,-1.4195835E1,9.290692E1,-7.552481E0,3.8811848E0,7.1003747E0,2.6512207E1,-4.7588196E0,2.8214927E0,1.0827637E-2,-6.381185E0,-4.0426025E-1,-1.5100952E0],"categories":[],"categories_nodes":[],"categories_segments":[],"categories_sizes":[],"default_left":[0,0,0,0,0,0,0,0,0,0,0,0,0],"id":15,"left_children":[1,3,5,-1,7,-1,-1,9,-1,-1,11,-1,-1],"loss_changes":[3.1384629E4,3.9806829E3,4.3992188E3,0E0,5.972653E2,0E0,0E0,3.1578964E1,0E0,0E0,3.213501E-2,0E0,0E0],"parents":[2147483647,0,0,1,1,2,2,4,4,7,7,10,10],"right_children":[2,4,6,-1,8,-1,-1,10,-1,-1,12,-1,-1],"split_conditions":[2.0935E3,9.93375E2,2.0994077E3,-7.552481E0,1.85925E3,7.1003747E0,2.6512207E1,1.177125E3,2.8214927E0,1.0827637E-2,1.735875E3,-4.0426025E-1,-1.5100952E0],"split_indices":[0,0,0,0,0,0,0,0,0,0,0,0,0],"split_type":[0,0,0,0,0,0,0,0,0,0,0,0,0],"sum_hessian":[1.1E1,8E0,3E0,3E0,5E0,2E0,1E0,3E0,2E0,1E0,2E0,1E0,1E0],"tree_param":{"num_deleted":"0","num_feature":"2","num_nodes":"13","size_leaf_vector":"1"}},{"base_weights":[4.759478E-1,-2.749736E1,2.2442106E1,-4.7573254E1,-6.3612585E0,-2.5658947E1,-1.5714478E1,-1.2170337E1,5.4409585E0,-7.3788085E0,-5.87087E0,-1.4105225E-1,-1.4860291E1,2.2039673E0,-5.716797E-1,-1.7710022E0,9.741211E-3,-4.221204E0,-1.1486084E0],"categories":[],"categories_nodes":[],"categories_segments":[],"categories_sizes":[],"default_left":[0,0,0,0,0,0,0,0,0,0,0,0,0,0,0,0,0,0,0],"id":16,"left_children":[1,3,-1,5,7,9,-1,11,13,-1,15,-1,17,-1,-1,-1,-1,-1,-1],"loss_changes":[4.6843695E4,4.789287E3,0E0,2.0598623E3,5.461383E2,8.950044E2,0E0,1.4372223E2,1.7040237E2,0E0,5.3425835E1,0E0,1.0656262E2,0E0,0E0,0E0,0E0,0E0,0E0],"parents":[2147483647,0,0,1,1,3,3,4,4,5,5,7,7,8,8,10,10,12,12],"right_children":[2,4,-1,6,8,10,-1,12,14,-1,16,-1,18,-1,-1,-1,-1,-1,-1],"split_conditions":[2.21E3,1.028E3,2.2442106E1,1.025E3,1.771E3,9.38E2,-1.5714478E1,1.562E3,2.029E3,-7.3788085E0,9.7E2,-1.4105225E-1,1.649E3,2.2039673E0,-5.716797E-1,-1.7710022E0,9.741211E-3,-4.221204E0,-1.1486084E0],"split_indices":[1,1,0,1,1,1,0,1,1,0,1,0,1,0,0,0,0,0,0],"split_type":[0,0,0,0,0,0,0,0,0,0,0,0,0,0,0,0,0,0,0],"sum_hessian":[1.3E1,1.1E1,2E0,5E0,6E0,4E0,1E0,4E0,2E0,2E0,2E0,1E0,3E0,1E0,1E0,1E0,1E0,1E0,2E0],"tree_param":{"num_deleted":"0","num_feature":"2","num_nodes":"19","size_leaf_vector":"1"}},{"base_weights":[3.2548883E0,-2.8438171E1,1.9449821E1,-4.244457E1,-3.1903076E-1,-2.2647425E1,-1.414303E1,-4.570597E0,1.2435669E0,-2.8331192E1,8.764649E-3,-1.2695312E-1,-1.2442261E0,-6.394971E0,-1.7400208E0],"categories":[],"categories_nodes":[],"categories_segments":[],"categories_sizes":[],"default_left":[0,0,0,0,0,0,0,0,0,0,0,0,0,0,0],"id":17,"left_children":[1,3,-1,5,7,9,-1,11,-1,13,-1,-1,-1,-1,-1],"loss_changes":[3.553419E4,3.5310898E3,0E0,1.7565449E3,1.395869E2,6.461006E2,0E0,1.5539696E1,0E0,7.9316406E0,0E0,0E0,0E0,0E0,0E0],"parents":[2147483647,0,0,1,1,3,3,4,4,5,5,7,7,9,9],"right_children":[2,4,-1,6,8,10,-1,12,-1,14,-1,-1,-1,-1,-1],"split_conditions":[1.972125E3,1.2690625E3,1.9449821E1,1.177125E3,1.85925E3,1.0874375E3,-1.414303E1,1.3650625E3,1.2435669E0,9.270625E2,8.764649E-3,-1.2695312E-1,-1.2442261E0,-6.394971E0,-1.7400208E0],"split_indices":[0,0,0,0,0,0,0,0,0,0,0,0,0,0,0],"split_type":[0,0,0,0,0,0,0,0,0,0,0,0,0,0,0],"sum_hessian":[1E1,8E0,2E0,5E0,3E0,4E0,1E0,2E0,1E0,3E0,1E0,1E0,1E0,2E0,1E0],"tree_param":{"num_deleted":"0","num_feature":"2","num_nodes":"15","size_leaf_vector":"1"}},{"base_weights":[-1.970738E-1,-2.1300577E1,1.6856527E1,-3.4314594E1,-2.567464E0,-1.8819153E1,-1.2728724E1,1.8379883E0,-2.4594727E0,-2.2598755E1,7.885742E-3,-1.5920411E-1,3.8593342E0,-5.5423098E0,-1.9906088E0,1.1192139E0,3.8586427E-2],"categories":[],"categories_nodes":[],"categories_segments":[],"categories_sizes":[],"default_left":[0,0,0,0,0,0,0,0,0,0,0,0,0,0,0,0,0],"id":18,"left_children":[1,3,-1,5,7,9,-1,11,-1,13,-1,-1,15,-1,-1,-1,-1],"loss_changes":[2.675472E4,2.8374136E3,0E0,1.983544E3,2.7979004E2,4.285586E2,0E0,2.9693327E1,0E0,4.746045E1,0E0,0E0,1.8023045E1,0E0,0E0,0E0,0E0],"parents":[2147483647,0,0,1,1,3,3,4,4,5,5,7,7,9,9,12,12],"right_children":[2,4,-1,6,8,10,-1,12,-1,14,-1,-1,16,-1,-1,-1,-1],"split_conditions":[2.21E3,1.028E3,1.6856527E1,1.025E3,2.029E3,9.89E2,-1.2728724E1,1.673E3,-2.4594727E0,9.38E2,7.885742E-3,-1.5920411E-1,1.96E3,-5.5423098E0,-1.9906088E0,1.1192139E0,3.8586427E-2],"split_indices":[1,1,0,1,1,1,0,1,0,1,0,0,1,0,0,0,0],"split_type":[0,0,0,0,0,0,0,0,0,0,0,0,0,0,0,0,0],"sum_hessian":[1.3E1,1.1E1,2E0,6E0,5E0,5E0,1E0,4E0,1E0,4E0,1E0,2E0,2E0,2E0,2E0,1E0,1E0],"tree_param":{"num_deleted":"0","num_feature":"2","num_nodes":"17","size_leaf_vector":"1"}},{"base_weights":[-1.791748E0,-1.892394E1,7.3045006E1,-3.976338E1,-5.243815E0,3.9273438E0,1.7986158E1,-2.1064606E1,-1.1455848E1,4.8372397E0,-8.81515E0,-4.8033366E0,-1.2208375E0,-9.833985E-2,1.5495118E0,-3.6587403E0,-4.186442E0,-1.1933594E-1,-2.2135255E0],"categories":[],"categories_nodes":[],"categories_segments":[],"categories_sizes":[],"default_left":[0,0,0,0,0,0,0,0,0,0,0,0,0,0,0,0,0,0,0],"id":19,"left_children":[1,3,5,7,9,-1,-1,11,-1,13,15,-1,-1,-1,-1,-1,17,-1,-1],"loss_changes":[2.0614062E4,3.497608E3,9.3957715E2,4.3106104E2,3.6666644E2,0E0,0E0,3.0054932E1,0E0,5.0336205E1,2.3052863E2,0E0,0E0,0E0,0E0,0E0,1.4160709E2,0E0,0E0],"parents":[2147483647,0,0,1,1,2,2,3,3,4,4,7,7,9,9,10,10,16,16],"right_children":[2,4,6,8,10,-1,-1,12,-1,14,16,-1,-1,-1,-1,-1,18,-1,-1],"split_conditions":[2.21E3,1.028E3,2.416E3,9.7E2,1.624E3,3.9273438E0,1.7986158E1,9.38E2,-1.1455848E1,1.562E3,1.649E3,-4.8033366E0,-1.2208375E0,-9.833985E-2,1.5495118E0,-3.6587403E0,2.029E3,-1.1933594E-1,-2.2135255E0],"split_indices":[1,1,1,1,1,0,0,1,0,1,1,0,0,0,0,0,1,0,0],"split_type":[0,0,0,0,0,0,0,0,0,0,0,0,0,0,0,0,0,0,0],"sum_hessian":[1.4E1,1.2E1,2E0,4E0,8E0,1E0,1E0,3E0,1E0,2E0,6E0,2E0,1E0,1E0,1E0,1E0,5E0,4E0,1E0],"tree_param":{"num_deleted":"0","num_feature":"2","num_nodes":"19","size_leaf_vector":"1"}},{"base_weights":[4.0306396E0,-8.111272E0,1.618755E1,-4.162891E0,-3.9093795E0,-2.3081543E0,-1.9921631E0,-5.9146934E0,2.4813232E0,-1.0237793E-1,-3.2928712E0,1.3945557E0,-7.6947026E-2],"categories":[],"categories_nodes":[],"categories_segments":[],"categories_sizes":[],"default_left":[0,0,0,0,0,0,0,0,0,0,0,0,0],"id":20,"left_children":[1,3,-1,-1,5,7,-1,9,11,-1,-1,-1,-1],"loss_changes":[1.3729698E4,6.1253455E2,0E0,0E0,8.359573E1,1.8741061E2,0E0,3.3355865E2,6.704653E1,0E0,0E0,0E0,0E0],"parents":[2147483647,0,0,1,1,4,4,5,5,7,7,8,8],"right_children":[2,4,-1,-1,6,8,-1,10,12,-1,-1,-1,-1],"split_conditions":[2.0994077E3,9.270625E2,1.618755E1,-4.162891E0,2.0935E3,1.4758125E3,-1.9921631E0,1.3650625E3,1.59925E3,-1.0237793E-1,-3.2928712E0,1.3945557E0,-7.6947026E-2],"split_indices":[0,0,0,0,0,0,0,0,0,0,0,0,0],"split_type":[0,0,0,0,0,0,0,0,0,0,0,0,0],"sum_hessian":[1.3E1,1.2E1,1E0,2E0,1E1,9E0,1E0,5E0,4E0,4E0,1E0,1E0,3E0],"tree_param":{"num_deleted":"0","num_feature":"2","num_nodes":"13","size_leaf_vector":"1"}},{"base_weights":[-1.7404081E0,-1.8695606E1,6.100879E1,-3.3600597E1,-5.378383E0,3.7338378E0,1.4568799E1,-3.2501373E0,-1.0300025E1,3.9228108E0,-9.883423E0,-7.825928E-2,1.2551025E0,-2.7837892E0,-2.553426E0,1.0269165E0,-1.7929443E0],"categories":[],"categories_nodes":[],"categories_segments":[],"categories_sizes":[],"default_left":[0,0,0,0,0,0,0,0,0,0,0,0,0,0,0,0,0],"id":21,"left_children":[1,3,5,7,9,-1,-1,-1,-1,11,13,-1,-1,-1,15,-1,-1],"loss_changes":[1.4971623E4,2.0027075E3,1.4335449E2,7.158638E2,3.3208655E2,0E0,0E0,0E0,0E0,3.2905018E1,1.1236081E2,0E0,0E0,0E0,1.9390039E2,0E0,0E0],"parents":[2147483647,0,0,1,1,2,2,3,3,4,4,9,9,10,10,14,14],"right_children":[2,4,6,8,10,-1,-1,-1,-1,12,14,-1,-1,-1,16,-1,-1],"split_conditions":[2.21E3,1.028E3,2.416E3,9.7E2,1.624E3,3.7338378E0,1.4568799E1,-3.2501373E0,-1.0300025E1,1.562E3,1.771E3,-7.825928E-2,1.2551025E0,-2.7837892E0,1.96E3,1.0269165E0,-1.7929443E0],"split_indices":[1,1,1,1,1,0,0,0,0,1,1,0,0,0,1,0,0],"split_type":[0,0,0,0,0,0,0,0,0,0,0,0,0,0,0,0,0],"sum_hessian":[1.2E1,1E1,2E0,4E0,6E0,1E0,1E0,3E0,1E0,2E0,4E0,1E0,1E0,2E0,2E0,1E0,1E0],"tree_param":{"num_deleted":"0","num_feature":"2","num_nodes":"17","size_leaf_vector":"1"}},{"base_weights":[2.1964056E0,-1.561813E1,5.490788E1,-2.3293976E1,-1.998291E-1,3.3604493E0,1.3111915E1,-9.412732E0,-9.27002E0,-3.347168E0,9.242188E-1,-1.3813095E1,8.188721E-1,-7.043457E-2,-9.337158E-1,-3.1744874E0,-7.6350707E-1],"categories":[],"categories_nodes":[],"categories_segments":[],"categories_sizes":[],"default_left":[0,0,0,0,0,0,0,0,0,0,0,0,0,0,0,0,0],"id":22,"left_children":[1,3,5,7,9,-1,-1,11,-1,13,-1,15,-1,-1,-1,-1,-1],"loss_changes":[1.1186893E4,1.0604817E3,1.1612012E2,1.4840046E3,7.615988E1,0E0,0E0,3.5373633E2,0E0,1.0228714E1,0E0,2.174353E1,0E0,0E0,0E0,0E0,0E0],"parents":[2147483647,0,0,1,1,2,2,3,3,4,4,7,7,9,9,11,11],"right_children":[2,4,6,8,10,-1,-1,12,-1,14,-1,16,-1,-1,-1,-1,-1],"split_conditions":[1.96E3,1.028E3,2.416E3,9.89E2,1.771E3,3.3604493E0,1.3111915E1,9.7E2,-9.27002E0,1.562E3,9.242188E-1,9.38E2,8.188721E-1,-7.043457E-2,-9.337158E-1,-3.1744874E0,-7.6350707E-1],"split_indices":[1,1,1,1,1,0,0,1,0,1,0,1,0,0,0,0,0],"split_type":[0,0,0,0,0,0,0,0,0,0,0,0,0,0,0,0,0],"sum_hessian":[1E1,8E0,2E0,5E0,3E0,1E0,1E0,4E0,1E0,2E0,1E0,3E0,1E0,1E0,1E0,2E0,1E0],"tree_param":{"num_deleted":"0","num_feature":"2","num_nodes":"17","size_leaf_vector":"1"}},{"base_weights":[1.0566295E1,-2.1455932E0,4.9417156E1,-1.2034973E1,3.8119943E0,3.024414E0,1.1800733E1,-3.3134155E0,-1.0003825E0,1.2856364E1,-2.3770263E0,7.369873E-1,3.119922E0,-2.5918336E0,3.5083008E0,1.0038086E0,-1.0239258E-1],"categories":[],"categories_nodes":[],"categories_segments":[],"categories_sizes":[],"default_left":[0,0,0,0,0,0,0,0,0,0,0,0,0,0,0,0,0],"id":23,"left_children":[1,3,5,7,9,-1,-1,-1,-1,11,13,-1,-1,-1,15,-1,-1],"loss_changes":[6.0324424E3,6.350457E2,9.4052734E1,4.4631165E1,4.2239044E2,0E0,0E0,0E0,0E0,1.7994873E1,3.5686145E2,0E0,0E0,0E0,2.68639E1,0E0,0E0],"parents":[2147483647,0,0,1,1,2,2,3,3,4,4,9,9,10,10,14,14],"right_children":[2,4,6,8,10,-1,-1,-1,-1,12,14,-1,-1,-1,16,-1,-1],"split_conditions":[2.0935E3,9.93375E2,2.0994077E3,8.925625E2,1.177125E3,3.024414E0,1.1800733E1,-3.3134155E0,-1.0003825E0,1.0874375E3,1.4758125E3,7.369873E-1,3.119922E0,-2.5918336E0,1.735875E3,1.0038086E0,-1.0239258E-1],"split_indices":[0,0,0,0,0,0,0,0,0,0,0,0,0,0,0,0,0],"split_type":[0,0,0,0,0,0,0,0,0,0,0,0,0,0,0,0,0],"sum_hessian":[1.1E1,9E0,2E0,3E0,6E0,1E0,1E0,1E0,2E0,2E0,4E0,1E0,1E0,1E0,3E0,2E0,1E0],"tree_param":{"num_deleted":"0","num_feature":"2","num_nodes":"17","size_leaf_vector":"1"}},{"base_weights":[-1.6428884E0,-4.2667623E0,2.7219727E0,-2.982074E0,-1.7113647E0,5.907251E0,-7.774984E0,-7.133789E-1,9.167511E0,-2.1085043E0,-3.7555847E0,2.314144E0,1.9578858E-1,4.9992678E-1,-2.252124E0],"categories":[],"categories_nodes":[],"categories_segments":[],"categories_sizes":[],"default_left":[0,0,0,0,0,0,0,0,0,0,0,0,0,0,0],"id":24,"left_children":[1,3,-1,-1,5,7,9,-1,11,-1,13,-1,-1,-1,-1],"loss_changes":[5.383256E2,2.7366806E2,0E0,0E0,5.078926E2,1.8714043E2,2.7149689E1,0E0,6.7388275E1,0E0,2.1593E2,0E0,0E0,0E0,0E0],"parents":[2147483647,0,0,1,1,4,4,5,5,6,6,8,8,10,10],"right_children":[2,4,-1,-1,6,8,10,-1,12,-1,14,-1,-1,-1,-1],"split_conditions":[2.21E3,9.13E2,2.7219727E0,-2.982074E0,1.562E3,9.38E2,1.771E3,-7.133789E-1,1.025E3,-2.1085043E0,2.029E3,2.314144E0,1.9578858E-1,4.9992678E-1,-2.252124E0],"split_indices":[1,1,0,0,1,1,1,0,1,0,1,0,0,0,0],"split_type":[0,0,0,0,0,0,0,0,0,0,0,0,0,0,0],"sum_hessian":[1.1E1,1E1,1E0,1E0,9E0,4E0,5E0,1E0,3E0,2E0,3E0,2E0,1E0,2E0,1E0],"tree_param":{"num_deleted":"0","num_feature":"2","num_nodes":"15","size_leaf_vector":"1"}},{"base_weights":[6.9093103E0,-5.1955944E-1,1.0348462E1,-1.03611145E1,3.4690185E0,-2.6838684E0,-9.737183E-1,1.0027954E1,5.757904E-1,4.3187258E-1,2.5765138E0,-6.485311E0,4.010376E0,1.762085E-1,-2.1218019E0,1.4169922E0,1.4036866E-1],"categories":[],"categories_nodes":[],"categories_segments":[],"categories_sizes":[],"default_left":[0,0,0,0,0,0,0,0,0,0,0,0,0,0,0,0,0],"id":25,"left_children":[1,3,-1,5,7,-1,-1,9,11,-1,-1,13,15,-1,-1,-1,-1],"loss_changes":[4.6897026E3,5.4624243E2,0E0,1.8562622E0,1.8399098E2,0E0,0E0,3.956723E1,2.2002419E2,0E0,0E0,1.00476845E2,5.6061653E1,0E0,0E0,0E0,0E0],"parents":[2147483647,0,0,1,1,3,3,4,4,7,7,8,8,11,11,12,12],"right_children":[2,4,-1,6,8,-1,-1,10,12,-1,-1,14,16,-1,-1,-1,-1],"split_conditions":[2.0994077E3,9.93375E2,1.0348462E1,8.925625E2,1.177125E3,-2.6838684E0,-9.737183E-1,1.0874375E3,1.4758125E3,4.3187258E-1,2.5765138E0,1.3650625E3,1.972125E3,1.762085E-1,-2.1218019E0,1.4169922E0,1.4036866E-1],"split_indices":[0,0,0,0,0,0,0,0,0,0,0,0,0,0,0,0,0],"split_type":[0,0,0,0,0,0,0,0,0,0,0,0,0,0,0,0,0],"sum_hessian":[1.3E1,1.2E1,1E0,3E0,9E0,1E0,2E0,2E0,7E0,1E0,1E0,2E0,5E0,1E0,1E0,2E0,3E0],"tree_param":{"num_deleted":"0","num_feature":"2","num_nodes":"17","size_leaf_vector":"1"}},{"base_weights":[-1.0125611E0,-7.737475E0,9.313623E0,-1.645588E1,3.3317697E0,-6.585266E0,-2.4680176E1,1.0468079E0,5.965576E-1,-9.203293E0,3.886841E-1,-8.121045E0,-5.8367515E0,-1.5617676E-1,2.631999E-1,-2.4154785E0,-8.438924E-1,1.5859376E-1,-1.9096192E0],"categories":[],"categories_nodes":[],"categories_segments":[],"categories_sizes":[],"default_left":[0,0,0,0,0,0,0,0,0,0,0,0,0,0,0,0,0,0,0],"id":26,"left_children":[1,3,-1,5,7,9,11,-1,13,15,-1,-1,17,-1,-1,-1,-1,-1,-1],"loss_changes":[5.1599585E3,1.4059133E3,0E0,4.8690527E2,3.329937E1,1.2952753E2,9.6332715E2,0E0,4.991598E0,6.336029E0,0E0,0E0,8.138686E1,0E0,0E0,0E0,0E0,0E0,0E0],"parents":[2147483647,0,0,1,1,3,3,4,4,5,5,6,6,8,8,9,9,12,12],"right_children":[2,4,-1,6,8,10,12,-1,14,16,-1,-1,18,-1,-1,-1,-1,-1,-1],"split_conditions":[2.0994077E3,1.4758125E3,9.313623E0,1.0874375E3,1.972125E3,9.93375E2,1.2690625E3,1.0468079E0,2.0935E3,8.925625E2,3.886841E-1,-8.121045E0,1.3650625E3,-1.5617676E-1,2.631999E-1,-2.4154785E0,-8.438924E-1,1.5859376E-1,-1.9096192E0],"split_indices":[0,0,0,0,0,0,0,0,0,0,0,0,0,0,0,0,0,0,0],"split_type":[0,0,0,0,0,0,0,0,0,0,0,0,0,0,0,0,0,0,0],"sum_hessian":[1.4E1,1.3E1,1E0,7E0,6E0,4E0,3E0,3E0,3E0,3E0,1E0,1E0,2E0,1E0,2E0,1E0,2E0,1E0,1E0],"tree_param":{"num_deleted":"0","num_feature":"2","num_nodes":"19","size_leaf_vector":"1"}},{"base_weights":[1.7316818E-1,-7.5104327E0,7.19445E0,3.496399E-1,-1.1915989E1,-8.17749E0,1.16026E1,-7.3089356E0,-4.2693176E0,-2.1739318E0,-7.313761E-1,3.498169E-1,3.130963E0,4.0993247E0,-1.5484172E0,1.4273682E-1,1.0870606E0],"categories":[],"categories_nodes":[],"categories_segments":[],"categories_sizes":[],"default_left":[0,0,0,0,0,0,0,0,0,0,0,0,0,0,0,0,0],"id":27,"left_children":[1,3,-1,5,7,9,11,-1,13,-1,-1,-1,-1,15,-1,-1,-1],"loss_changes":[4.67122E3,4.8895813E2,0E0,6.706129E2,1.5389265E3,8.931946E0,9.240411E1,0E0,2.6423618E2,0E0,0E0,0E0,0E0,9.690334E0,0E0,0E0,0E0],"parents":[2147483647,0,0,1,1,3,3,4,4,5,5,6,6,8,8,13,13],"right_children":[2,4,-1,6,8,10,12,-1,14,-1,-1,-1,-1,16,-1,-1,-1],"split_conditions":[2.21E3,1.025E3,7.19445E0,9.7E2,1.028E3,9.13E2,9.89E2,-7.3089356E0,1.624E3,-2.1739318E0,-7.313761E-1,3.498169E-1,3.130963E0,1.562E3,-1.5484172E0,1.4273682E-1,1.0870606E0],"split_indices":[1,1,0,1,1,1,1,0,1,0,0,0,0,1,0,0,0],"split_type":[0,0,0,0,0,0,0,0,0,0,0,0,0,0,0,0,0],"sum_hessian":[1.5E1,1.3E1,2E0,5E0,8E0,3E0,2E0,1E0,7E0,1E0,2E0,1E0,1E0,2E0,5E0,1E0,1E0],"tree_param":{"num_deleted":"0","num_feature":"2","num_nodes":"17","size_leaf_vector":"1"}},{"base_weights":[-5.9661713E0,-1.1759007E1,1.786499E0,-1.7891845E-1,-2.7139486E1,8.533692E-1,-5.2038574E-1,-7.2683105E0,2.8178651E0,-6.5780396E0,-1.5638062E0,1.4282227E-2,-1.4829102E-1,-1.9565369E0,-6.3385826E-1],"categories":[],"categories_nodes":[],"categories_segments":[],"categories_sizes":[],"default_left":[0,0,0,0,0,0,0,0,0,0,0,0,0,0,0],"id":28,"left_children":[1,3,5,7,9,-1,11,13,-1,-1,-1,-1,-1,-1,-1],"loss_changes":[5.599269E2,1.2418955E3,3.655165E1,6.081715E2,7.614966E1,0E0,5.762607E-1,1.0221695E1,0E0,0E0,0E0,0E0,0E0,0E0,0E0],"parents":[2147483647,0,0,1,1,2,2,3,3,4,4,6,6,7,7],"right_children":[2,4,6,8,10,-1,12,14,-1,-1,-1,-1,-1,-1,-1],"split_conditions":[1.4758125E3,1.177125E3,1.735875E3,9.93375E2,1.2690625E3,8.533692E-1,2.0935E3,8.925625E2,2.8178651E0,-6.5780396E0,-1.5638062E0,1.4282227E-2,-1.4829102E-1,-1.9565369E0,-6.3385826E-1],"split_indices":[0,0,0,0,0,0,0,0,0,0,0,0,0,0,0],"split_type":[0,0,0,0,0,0,0,0,0,0,0,0,0,0,0],"sum_hessian":[1.1E1,6E0,5E0,4E0,2E0,2E0,3E0,3E0,1E0,1E0,1E0,1E0,2E0,1E0,2E0],"tree_param":{"num_deleted":"0","num_feature":"2","num_nodes":"15","size_leaf_vector":"1"}},{"base_weights":[1.2758745E0,-4.5318556E0,7.6776366E0,-9.416251E0,9.9994767E-1,1.1285858E0,-1.7607025E1,8.930176E-1,-3.21757E-1,-6.948812E0,2.536078E0,-5.9202394E0,-3.7419026E0,-7.12207E-1,1.0383056E0,-1.7608826E0,-3.23761E-1,2.8485107E-1,-1.407422E0,6.990967E-1,-8.997192E-2],"categories":[],"categories_nodes":[],"categories_segments":[],"categories_sizes":[],"default_left":[0,0,0,0,0,0,0,0,0,0,0,0,0,0,0,0,0,0,0,0,0],"id":29,"left_children":[1,3,-1,5,7,9,11,-1,13,15,-1,-1,17,-1,19,-1,-1,-1,-1,-1,-1],"loss_changes":[3.1915054E3,3.606695E2,0E0,6.244636E2,3.349592E1,4.613477E2,5.5443787E2,0E0,3.0131168E1,1.5418472E1,0E0,0E0,6.109332E1,0E0,1.9855907E1,0E0,0E0,0E0,0E0,0E0,0E0],"parents":[2147483647,0,0,1,1,3,3,4,4,5,5,6,6,8,8,9,9,12,12,14,14],"right_children":[2,4,-1,6,8,10,12,-1,14,16,-1,-1,18,-1,20,-1,-1,-1,-1,-1,-1],"split_conditions":[2.0994077E3,1.4758125E3,7.6776366E0,1.177125E3,1.59925E3,9.270625E2,1.2690625E3,8.930176E-1,1.85925E3,8.925625E2,2.536078E0,-5.9202394E0,1.3650625E3,-7.12207E-1,1.972125E3,-1.7608826E0,-3.23761E-1,2.8485107E-1,-1.407422E0,6.990967E-1,-8.997192E-2],"split_indices":[0,0,0,0,0,0,0,0,0,0,0,0,0,0,0,0,0,0,0,0,0],"split_type":[0,0,0,0,0,0,0,0,0,0,0,0,0,0,0,0,0,0,0,0,0],"sum_hessian":[1.3E1,1.2E1,1E0,6E0,6E0,3E0,3E0,1E0,5E0,2E0,1E0,1E0,2E0,1E0,4E0,1E0,1E0,1E0,1E0,1E0,3E0],"tree_param":{"num_deleted":"0","num_feature":"2","num_nodes":"21","size_leaf_vector":"1"}},{"base_weights":[1.5210222E0,-3.6772554E0,6.9098635E0,-9.459636E0,1.1191864E0,-6.951416E-1,-5.3282104E0,7.06722E-1,-2.745565E-1,-1.3150208E0,2.2824707E0,-6.409912E-1,9.5251465E-1,6.2918705E-1,-7.646485E-2],"categories":[],"categories_nodes":[],"categories_segments":[],"categories_sizes":[],"default_left":[0,0,0,0,0,0,0,0,0,0,0,0,0,0,0],"id":30,"left_children":[1,3,-1,5,7,9,-1,-1,11,-1,-1,-1,13,-1,-1],"loss_changes":[2.5307102E3,3.7114014E2,0E0,8.8499927E2,2.7890862E1,4.3099545E2,0E0,0E0,2.462762E1,0E0,0E0,0E0,1.5842081E1,0E0,0E0],"parents":[2147483647,0,0,1,1,3,3,4,4,5,5,8,8,12,12],"right_children":[2,4,-1,6,8,10,-1,-1,12,-1,-1,-1,14,-1,-1],"split_conditions":[2.0994077E3,1.2690625E3,6.9098635E0,1.177125E3,1.59925E3,9.93375E2,-5.3282104E0,7.06722E-1,1.85925E3,-1.3150208E0,2.2824707E0,-6.409912E-1,1.972125E3,6.2918705E-1,-7.646485E-2],"split_indices":[0,0,0,0,0,0,0,0,0,0,0,0,0,0,0],"split_type":[0,0,0,0,0,0,0,0,0,0,0,0,0,0,0],"sum_hessian":[1.3E1,1.2E1,1E0,5E0,7E0,4E0,1E0,2E0,5E0,3E0,1E0,1E0,4E0,1E0,3E0],"tree_param":{"num_deleted":"0","num_feature":"2","num_nodes":"15","size_leaf_vector":"1"}},{"base_weights":[-2.5636733E0,-5.329361E-1,-1.880957E0,-5.154953E0,3.2712646E0,-1.453296E0,-4.0579018E-1,2.0542238E0,-1.0464783E0,-3.838786E0,7.3304445E-1,1.8570557E-1,-1.3373413E0],"categories":[],"categories_nodes":[],"categories_segments":[],"categories_sizes":[],"default_left":[0,0,0,0,0,0,0,0,0,0,0,0,0],"id":31,"left_children":[1,3,-1,5,7,-1,-1,-1,9,11,-1,-1,-1],"loss_changes":[1.20020355E2,1.5752785E2,0E0,1.165921E1,1.6186633E2,0E0,0E0,0E0,6.669607E1,4.6939583E1,0E0,0E0,0E0],"parents":[2147483647,0,0,1,1,3,3,4,4,8,8,9,9],"right_children":[2,4,-1,6,8,-1,-1,-1,10,12,-1,-1,-1],"split_conditions":[1.59925E3,1.0874375E3,-1.880957E0,8.925625E2,1.177125E3,-1.453296E0,-4.0579018E-1,2.0542238E0,1.4758125E3,1.3650625E3,7.3304445E-1,1.8570557E-1,-1.3373413E0],"split_indices":[0,0,0,0,0,0,0,0,0,0,0,0,0],"split_type":[0,0,0,0,0,0,0,0,0,0,0,0,0],"sum_hessian":[8E0,7E0,1E0,3E0,4E0,1E0,2E0,1E0,3E0,2E0,1E0,1E0,1E0],"tree_param":{"num_deleted":"0","num_feature":"2","num_nodes":"13","size_leaf_vector":"1"}},{"base_weights":[-3.4492838E0,-7.1321206E0,1.778547E0,-9.4746906E-1,-1.4626068E1,7.9967445E-1,9.094238E-2,-9.669141E-1,1.8488038E0,-4.813953E0,-3.4549153E0,-3.8879395E-1,2.1713257E-1,1.6713868E-1,-1.2036133E0],"categories":[],"categories_nodes":[],"categories_segments":[],"categories_sizes":[],"default_left":[0,0,0,0,0,0,0,0,0,0,0,0,0,0,0],"id":32,"left_children":[1,3,5,7,9,-1,11,-1,-1,-1,13,-1,-1,-1,-1],"loss_changes":[3.0148355E2,4.0326935E2,2.5859694E1,2.823829E2,3.3882886E2,0E0,1.2231339E1,0E0,0E0,0E0,3.8021694E1,0E0,0E0,0E0,0E0],"parents":[2147483647,0,0,1,1,2,2,3,3,4,4,6,6,10,10],"right_children":[2,4,6,8,10,-1,12,-1,-1,-1,14,-1,-1,-1,-1],"split_conditions":[1.4758125E3,1.177125E3,1.735875E3,1.0874375E3,1.2690625E3,7.9967445E-1,1.85925E3,-9.669141E-1,1.8488038E0,-4.813953E0,1.3650625E3,-3.8879395E-1,2.1713257E-1,1.6713868E-1,-1.2036133E0],"split_indices":[0,0,0,0,0,0,0,0,0,0,0,0,0,0,0],"split_type":[0,0,0,0,0,0,0,0,0,0,0,0,0,0,0],"sum_hessian":[1.4E1,8E0,6E0,5E0,3E0,2E0,4E0,4E0,1E0,1E0,2E0,1E0,3E0,1E0,1E0],"tree_param":{"num_deleted":"0","num_feature":"2","num_nodes":"15","size_leaf_vector":"1"}},{"base_weights":[-2.2479095E0,-7.8155255E0,4.622294E0,-1.10119626E-1,-1.8052694E1,1.7710693E0,1.8878418E0,-4.297455E0,1.6639222E0,-4.3325562E0,-1.083252E0,6.9305015E-1,-5.1346844E-1,-1.2112732E0,-1.6923624E0,-3.4991455E-1,1.9587402E-1,-2.2613525E-2,-4.8509523E-1],"categories":[],"categories_nodes":[],"categories_segments":[],"categories_sizes":[],"default_left":[0,0,0,0,0,0,0,0,0,0,0,0,0,0,0,0,0,0,0],"id":33,"left_children":[1,3,5,7,9,11,-1,13,-1,-1,-1,-1,15,-1,17,-1,-1,-1,-1],"loss_changes":[4.951335E2,5.5018274E2,6.568715E1,2.1224368E2,1.9524658E1,2.1131401E1,0E0,8.078934E0,0E0,0E0,0E0,0E0,7.249392E0,0E0,3.1991644E0,0E0,0E0,0E0,0E0],"parents":[2147483647,0,0,1,1,2,2,3,3,4,4,5,5,7,7,12,12,14,14],"right_children":[2,4,6,8,10,12,-1,14,-1,-1,-1,-1,16,-1,18,-1,-1,-1,-1],"split_conditions":[1.4758125E3,1.177125E3,2.0935E3,9.93375E2,1.2690625E3,1.735875E3,1.8878418E0,8.925625E2,1.6639222E0,-4.3325562E0,-1.083252E0,6.9305015E-1,1.85925E3,-1.2112732E0,9.270625E2,-3.4991455E-1,1.9587402E-1,-2.2613525E-2,-4.8509523E-1],"split_indices":[0,0,0,0,0,0,0,0,0,0,0,0,0,0,0,0,0,0,0],"split_type":[0,0,0,0,0,0,0,0,0,0,0,0,0,0,0,0,0,0,0],"sum_hessian":[1.1E1,6E0,5E0,4E0,2E0,4E0,1E0,3E0,1E0,1E0,1E0,2E0,2E0,1E0,2E0,1E0,1E0,1E0,1E0],"tree_param":{"num_deleted":"0","num_feature":"2","num_nodes":"19","size_leaf_vector":"1"}},{"base_weights":[7.927142E0,1.9229804E0,6.1964602E0,-1.0901489E0,3.5260391E0,-2.034912E-2,4.0588293E0,1.4975281E0,2.2394207E0,2.2715454E-1,5.928955E-1],"categories":[],"categories_nodes":[],"categories_segments":[],"categories_sizes":[],"default_left":[0,0,0,0,0,0,0,0,0,0,0],"id":34,"left_children":[1,3,-1,-1,5,-1,7,-1,9,-1,-1],"loss_changes":[1.3246906E3,1.2560417E2,0E0,0E0,1.5875748E1,0E0,2.6900887E1,0E0,1.4342728E0,0E0,0E0],"parents":[2147483647,0,0,1,1,4,4,6,6,8,8],"right_children":[2,4,-1,-1,6,-1,8,-1,10,-1,-1],"split_conditions":[2.029E3,9.13E2,6.1964602E0,-1.0901489E0,9.38E2,-2.034912E-2,1.025E3,1.4975281E0,1.771E3,2.2715454E-1,5.928955E-1],"split_indices":[1,1,0,0,1,0,1,0,1,0,0],"split_type":[0,0,0,0,0,0,0,0,0,0,0],"sum_hessian":[9E0,8E0,1E0,1E0,7E0,1E0,6E0,1E0,5E0,3E0,2E0],"tree_param":{"num_deleted":"0","num_feature":"2","num_nodes":"11","size_leaf_vector":"1"}},{"base_weights":[-1.061499E0,-6.344961E0,2.2187338E1,-1.022583E1,-2.6411896E0,1.0793946E0,5.5768065E0,-8.853907E-1,-3.9220216E0,5.858154E-1,-2.5230224E0,-4.061686E-1,6.53772E-1,4.825277E-1,-4.8374635E-1],"categories":[],"categories_nodes":[],"categories_segments":[],"categories_sizes":[],"default_left":[0,0,0,0,0,0,0,0,0,0,0,0,0,0,0],"id":35,"left_children":[1,3,5,7,9,-1,-1,-1,-1,11,-1,13,-1,-1,-1],"loss_changes":[1.9832931E3,1.5985168E2,1.3645935E2,2.396966E2,2.648773E2,0E0,0E0,0E0,0E0,1.995847E1,0E0,3.9873688E1,0E0,0E0,0E0],"parents":[2147483647,0,0,1,1,2,2,3,3,4,4,9,9,11,11],"right_children":[2,4,6,8,10,-1,-1,-1,-1,12,-1,14,-1,-1,-1],"split_conditions":[2.21E3,1.028E3,2.416E3,9.89E2,1.96E3,1.0793946E0,5.5768065E0,-8.853907E-1,-3.9220216E0,1.771E3,-2.5230224E0,1.624E3,6.53772E-1,4.825277E-1,-4.8374635E-1],"split_indices":[1,1,1,1,1,0,0,0,0,1,0,1,0,0,0],"split_type":[0,0,0,0,0,0,0,0,0,0,0,0,0,0,0],"sum_hessian":[1.4E1,1.2E1,2E0,5E0,7E0,1E0,1E0,4E0,1E0,6E0,1E0,5E0,1E0,2E0,3E0],"tree_param":{"num_deleted":"0","num_feature":"2","num_nodes":"15","size_leaf_vector":"1"}},{"base_weights":[-1.1417643E-1,-3.7074149E0,5.0191164E0,-1.9891357E-1,-5.634481E0,-7.437305E-1,1.7399781E0,-3.5298219E0,-1.9265137E0,-4.0323892E-1,-8.6617845E-1,-5.076579E-1,2.5977173E-1],"categories":[],"categories_nodes":[],"categories_segments":[],"categories_sizes":[],"default_left":[0,0,0,0,0,0,0,0,0,0,0,0,0],"id":36,"left_children":[1,3,-1,5,7,-1,-1,-1,9,11,-1,-1,-1],"loss_changes":[1.4518098E3,9.353482E1,0E0,2.2028065E2,3.669474E2,0E0,0E0,0E0,2.7553848E1,2.5101265E1,0E0,0E0,0E0],"parents":[2147483647,0,0,1,1,3,3,4,4,8,8,9,9],"right_children":[2,4,-1,6,8,-1,-1,-1,10,12,-1,-1,-1],"split_conditions":[2.0994077E3,1.177125E3,5.0191164E0,1.0874375E3,1.2690625E3,-7.437305E-1,1.7399781E0,-3.5298219E0,2.0935E3,1.4758125E3,-8.6617845E-1,-5.076579E-1,2.5977173E-1],"split_indices":[0,0,0,0,0,0,0,0,0,0,0,0,0],"split_type":[0,0,0,0,0,0,0,0,0,0,0,0,0],"sum_hessian":[1.4E1,1.3E1,1E0,5E0,8E0,4E0,1E0,1E0,7E0,5E0,2E0,2E0,3E0],"tree_param":{"num_deleted":"0","num_feature":"2","num_nodes":"13","size_leaf_vector":"1"}},{"base_weights":[-2.1996372E0,-3.1827486E0,1.058081E0,-1.627889E0,-2.1841066E0,-4.532436E0,2.0320637E0,6.8969727E-3,-3.1768434E0,7.8375244E-1,6.0382485E-1,-6.247363E-1,1.565979E0,4.1915688E-1,-3.152344E-1],"categories":[],"categories_nodes":[],"categories_segments":[],"categories_sizes":[],"default_left":[0,0,0,0,0,0,0,0,0,0,0,0,0,0,0],"id":37,"left_children":[1,3,-1,5,-1,7,9,11,-1,13,-1,-1,-1,-1,-1],"loss_changes":[1.1992769E2,1.3862775E2,0E0,1.3677625E2,0E0,3.608161E2,5.026705E0,1.7140115E2,0E0,1.5688501E1,0E0,0E0,0E0,0E0,0E0],"parents":[2147483647,0,0,1,1,3,3,5,5,6,6,7,7,9,9],"right_children":[2,4,-1,6,-1,8,10,12,-1,14,-1,-1,-1,-1,-1],"split_conditions":[2.21E3,2.029E3,1.058081E0,1.028E3,-2.1841066E0,1.025E3,1.771E3,9.89E2,-3.1768434E0,1.673E3,6.0382485E-1,-6.247363E-1,1.565979E0,4.1915688E-1,-3.152344E-1],"split_indices":[1,1,0,1,0,1,1,1,0,1,0,0,0,0,0],"split_type":[0,0,0,0,0,0,0,0,0,0,0,0,0,0,0],"sum_hessian":[1.3E1,1.2E1,1E0,1.1E1,1E0,6E0,5E0,5E0,1E0,3E0,2E0,4E0,1E0,2E0,1E0],"tree_param":{"num_deleted":"0","num_feature":"2","num_nodes":"15","size_leaf_vector":"1"}},{"base_weights":[-1.7615685E-1,-5.084251E0,1.7878906E1,-3.6269774E0,-1.9656982E0,9.522705E-1,4.4114013E0,-6.9518228E0,1.0882324E0,-2.623877E0,-2.8591554E0,3.6326498E-1,-2.6041667E-3,-7.557495E-1,-2.780945E-1,-2.837158E-1,2.8293458E-1],"categories":[],"categories_nodes":[],"categories_segments":[],"categories_sizes":[],"default_left":[0,0,0,0,0,0,0,0,0,0,0,0,0,0,0,0,0],"id":38,"left_children":[1,3,5,7,-1,-1,-1,9,11,13,-1,-1,15,-1,-1,-1,-1],"loss_changes":[1.2429081E3,4.0402466E1,5.9398132E1,1.6433862E2,0E0,0E0,0E0,1.5319504E2,3.9758792E0,1.8678665E0,0E0,0E0,8.027312E0,0E0,0E0,0E0,0E0],"parents":[2147483647,0,0,1,1,2,2,3,3,7,7,8,8,9,9,12,12],"right_children":[2,4,6,8,-1,-1,-1,10,12,14,-1,-1,16,-1,-1,-1,-1],"split_conditions":[2.21E3,2.029E3,2.416E3,1.028E3,-1.9656982E0,9.522705E-1,4.4114013E0,9.89E2,1.673E3,9.13E2,-2.8591554E0,3.6326498E-1,1.771E3,-7.557495E-1,-2.780945E-1,-2.837158E-1,2.8293458E-1],"split_indices":[1,1,1,1,0,0,0,1,1,1,0,0,1,0,0,0,0],"split_type":[0,0,0,0,0,0,0,0,0,0,0,0,0,0,0,0,0],"sum_hessian":[1.2E1,1E1,2E0,9E0,1E0,1E0,1E0,5E0,4E0,4E0,1E0,2E0,2E0,1E0,3E0,1E0,1E0],"tree_param":{"num_deleted":"0","num_feature":"2","num_nodes":"17","size_leaf_vector":"1"}},{"base_weights":[5.047279E-1,-2.305884E0,2.010098E0,-6.801758E-1,-1.1819153E0,1.6952943E0,1.4224243E-1,2.3487549E-1,-4.7176108E-1,1.7098389E0,-6.0807294E-1,4.0375978E-1,7.27946E-1,-2.553467E-1,4.7373047E-1],"categories":[],"categories_nodes":[],"categories_segments":[],"categories_sizes":[],"default_left":[0,0,0,0,0,0,0,0,0,0,0,0,0,0,0],"id":39,"left_children":[1,3,5,-1,7,-1,9,-1,-1,11,-1,-1,13,-1,-1],"loss_changes":[5.963819E1,2.1341496E0,1.0749855E2,0E0,1.3862519E1,0E0,4.511088E1,0E0,0E0,3.5061646E-1,0E0,0E0,1.2891408E1,0E0,0E0],"parents":[2147483647,0,0,1,1,2,2,4,4,6,6,9,9,12,12],"right_children":[2,4,6,-1,8,-1,10,-1,-1,12,-1,-1,14,-1,-1],"split_conditions":[1.0874375E3,8.925625E2,1.177125E3,-6.801758E-1,9.270625E2,1.6952943E0,1.972125E3,2.3487549E-1,-4.7176108E-1,1.735875E3,-6.0807294E-1,4.0375978E-1,1.85925E3,-2.553467E-1,4.7373047E-1],"split_indices":[0,0,0,0,0,0,0,0,0,0,0,0,0,0,0],"split_type":[0,0,0,0,0,0,0,0,0,0,0,0,0,0,0],"sum_hessian":[1.2E1,4E0,8E0,1E0,3E0,1E0,7E0,1E0,2E0,5E0,2E0,3E0,2E0,1E0,1E0],"tree_param":{"num_deleted":"0","num_feature":"2","num_nodes":"15","size_leaf_vector":"1"}},{"base_weights":[2.775255E0,-1.916687E0,4.0310793E0,2.4996512E-1,-1.7083253E0,-1.7168579E0,2.1542969E0,-6.1215824E-1,-2.4861653E-1,1.1992188E-1,4.9453124E-1,2.1138917E-1,-2.8597412E-1],"categories":[],"categories_nodes":[],"categories_segments":[],"categories_sizes":[],"default_left":[0,0,0,0,0,0,0,0,0,0,0,0,0],"id":40,"left_children":[1,3,-1,5,-1,7,9,-1,11,-1,-1,-1,-1],"loss_changes":[7.725511E2,1.1696661E2,0E0,2.9917007E1,0E0,7.1319094E0,4.971695E-1,0E0,6.1378984E0,0E0,0E0,0E0,0E0],"parents":[2147483647,0,0,1,1,3,3,5,5,6,6,8,8],"right_children":[2,4,-1,6,-1,8,10,-1,12,-1,-1,-1,-1],"split_conditions":[2.0994077E3,2.0935E3,4.0310793E0,9.93375E2,-1.7083253E0,8.925625E2,1.3650625E3,-6.1215824E-1,9.270625E2,1.1992188E-1,4.9453124E-1,2.1138917E-1,-2.8597412E-1],"split_indices":[0,0,0,0,0,0,0,0,0,0,0,0,0],"split_type":[0,0,0,0,0,0,0,0,0,0,0,0,0],"sum_hessian":[8E0,7E0,1E0,6E0,1E0,3E0,3E0,1E0,2E0,1E0,2E0,1E0,1E0],"tree_param":{"num_deleted":"0","num_feature":"2","num_nodes":"13","size_leaf_vector":"1"}},{"base_weights":[4.1939697E-1,-2.1420593E0,3.6279786E0,9.273173E-1,-3.9503038E0,-1.9147583E0,1.5137695E0,-2.4614584E0,1.9559152E-1,-5.5094E-1,-1.016098E0,1.1714844E0,-2.9921874E-1,1.9025269E-1,-3.977946E-1,-3.8102213E-2,4.2859703E-1],"categories":[],"categories_nodes":[],"categories_segments":[],"categories_sizes":[],"default_left":[0,0,0,0,0,0,0,0,0,0,0,0,0,0,0,0,0],"id":41,"left_children":[1,3,-1,5,7,9,-1,-1,11,-1,13,15,-1,-1,-1,-1,-1],"loss_changes":[7.197108E2,8.136575E1,0E0,1.27746895E2,3.14232E2,9.750633E-1,0E0,0E0,1.3308975E1,0E0,9.548024E0,7.0241594E0,0E0,0E0,0E0,0E0,0E0],"parents":[2147483647,0,0,1,1,3,3,4,4,5,5,8,8,10,10,11,11],"right_children":[2,4,-1,6,8,10,-1,-1,12,-1,14,16,-1,-1,-1,-1,-1],"split_conditions":[2.0994077E3,1.177125E3,3.6279786E0,1.0874375E3,1.4758125E3,8.925625E2,1.5137695E0,-2.4614584E0,2.0935E3,-5.5094E-1,9.270625E2,1.85925E3,-2.9921874E-1,1.9025269E-1,-3.977946E-1,-3.8102213E-2,4.2859703E-1],"split_indices":[0,0,0,0,0,0,0,0,0,0,0,0,0,0,0,0,0],"split_type":[0,0,0,0,0,0,0,0,0,0,0,0,0,0,0,0,0],"sum_hessian":[1.4E1,1.3E1,1E0,5E0,8E0,4E0,1E0,2E0,6E0,1E0,3E0,4E0,2E0,1E0,2E0,2E0,2E0],"tree_param":{"num_deleted":"0","num_feature":"2","num_nodes":"17","size_leaf_vector":"1"}},{"base_weights":[-9.267062E-1,-3.7249196E0,3.2651856E0,-6.007239E0,-1.8328552E0,-1.560379E0,-2.3794677E0,5.89774E-2,-1.5075684E0,-4.958435E-1,-4.276937E-1,-1.0317872E0,3.7145182E-1,1.7122804E-1,-2.9953614E-1,3.5407716E-1,-4.3498537E-1],"categories":[],"categories_nodes":[],"categories_segments":[],"categories_sizes":[],"default_left":[0,0,0,0,0,0,0,0,0,0,0,0,0,0,0,0,0],"id":42,"left_children":[1,3,-1,5,7,9,-1,11,-1,-1,13,15,-1,-1,-1,-1,-1],"loss_changes":[6.8840796E2,4.0809128E1,0E0,1.123979E2,8.67876E1,3.1026735E0,0E0,1.564681E1,0E0,0E0,5.403281E0,1.9866835E1,0E0,0E0,0E0,0E0,0E0],"parents":[2147483647,0,0,1,1,3,3,4,4,5,5,7,7,10,10,11,11],"right_children":[2,4,-1,6,8,10,-1,12,-1,-1,14,16,-1,-1,-1,-1,-1],"split_conditions":[2.21E3,1.028E3,3.2651856E0,9.89E2,2.029E3,9.13E2,-2.3794677E0,1.771E3,-1.5075684E0,-4.958435E-1,9.38E2,1.562E3,3.7145182E-1,1.7122804E-1,-2.9953614E-1,3.5407716E-1,-4.3498537E-1],"split_indices":[1,1,0,1,1,1,0,1,0,0,1,1,0,0,0,0,0],"split_type":[0,0,0,0,0,0,0,0,0,0,0,0,0,0,0,0,0],"sum_hessian":[1.2E1,1.1E1,1E0,4E0,7E0,3E0,1E0,6E0,1E0,1E0,2E0,4E0,2E0,1E0,1E0,1E0,3E0],"tree_param":{"num_deleted":"0","num_feature":"2","num_nodes":"17","size_leaf_vector":"1"}},{"base_weights":[-1.1243042E0,1.4182638E0,-2.5374146E0,-1.4987549E0,1.6003357E0,-2.1415162E0,-4.3988717E-1,-4.4625854E-1,-7.5779724E-1,3.1866455E-1,-8.9320374E-1,1.5410767E-1,-3.048177E-1,-7.7694094E-1,8.911133E-2,2.5083986E-1,-3.7648115E-1],"categories":[],"categories_nodes":[],"categories_segments":[],"categories_sizes":[],"default_left":[0,0,0,0,0,0,0,0,0,0,0,0,0,0,0,0,0],"id":43,"left_children":[1,3,5,7,-1,-1,9,-1,11,-1,13,-1,-1,-1,15,-1,-1],"loss_changes":[5.749266E1,1.272162E2,1.6666135E2,1.0230303E0,0E0,0E0,9.718351E0,0E0,5.8589697E0,0E0,2.3854942E1,0E0,0E0,0E0,1.8439846E1,0E0,0E0],"parents":[2147483647,0,0,1,1,2,2,3,3,6,6,8,8,10,10,14,14],"right_children":[2,4,6,8,-1,-1,10,-1,12,-1,14,-1,-1,-1,16,-1,-1],"split_conditions":[1.177125E3,1.0874375E3,1.2690625E3,8.925625E2,1.6003357E0,-2.1415162E0,1.3650625E3,-4.4625854E-1,9.270625E2,3.1866455E-1,1.4758125E3,1.5410767E-1,-3.048177E-1,-7.7694094E-1,1.972125E3,2.5083986E-1,-3.7648115E-1],"split_indices":[0,0,0,0,0,0,0,0,0,0,0,0,0,0,0,0,0],"split_type":[0,0,0,0,0,0,0,0,0,0,0,0,0,0,0,0,0],"sum_hessian":[1.4E1,5E0,9E0,4E0,1E0,1E0,8E0,1E0,3E0,1E0,7E0,1E0,2E0,1E0,6E0,4E0,2E0],"tree_param":{"num_deleted":"0","num_feature":"2","num_nodes":"17","size_leaf_vector":"1"}},{"base_weights":[-1.6793779E0,1.301829E0,-3.4802518E0,-1.3184083E0,1.4403015E0,-1.9273682E0,-1.506073E0,-4.0163574E-1,-6.439209E-1,1.632952E-1,-1.3191651E0,1.386963E-1,-2.6417646E-1,3.6963704E-1,-8.8029784E-1,-6.992432E-1,1.2954712E-1],"categories":[],"categories_nodes":[],"categories_segments":[],"categories_sizes":[],"default_left":[0,0,0,0,0,0,0,0,0,0,0,0,0,0,0,0,0],"id":44,"left_children":[1,3,5,7,-1,-1,9,-1,11,13,-1,-1,-1,-1,15,-1,-1],"loss_changes":[7.969358E1,1.02245865E2,9.487407E1,1.0330992E0,0E0,0E0,6.905043E1,0E0,4.5374856E0,1.393533E1,0E0,0E0,0E0,0E0,2.2250673E1,0E0,0E0],"parents":[2147483647,0,0,1,1,2,2,3,3,6,6,8,8,9,9,14,14],"right_children":[2,4,6,8,-1,-1,10,-1,12,14,-1,-1,-1,-1,16,-1,-1],"split_conditions":[1.025E3,9.89E2,1.028E3,9.13E2,1.4403015E0,-1.9273682E0,1.96E3,-4.0163574E-1,9.38E2,1.624E3,-1.3191651E0,1.386963E-1,-2.6417646E-1,3.6963704E-1,1.649E3,-6.992432E-1,1.2954712E-1],"split_indices":[1,1,1,1,0,0,1,0,1,1,0,0,0,0,1,0,0],"split_type":[0,0,0,0,0,0,0,0,0,0,0,0,0,0,0,0,0],"sum_hessian":[1.3E1,5E0,8E0,4E0,1E0,1E0,7E0,1E0,3E0,6E0,1E0,1E0,2E0,2E0,4E0,1E0,3E0],"tree_param":{"num_deleted":"0","num_feature":"2","num_nodes":"17","size_leaf_vector":"1"}},{"base_weights":[1.1079407E0,-2.0989635E0,2.7132487E0,1.1936544E0,-4.6213555E0,-1.1601562E0,1.2962707E0,-1.7346314E0,-2.500529E0,-3.614746E-1,-5.465088E-1,-6.261231E-1,-1.1872559E0,1.24829106E-1,-2.2895508E-1,-3.3430788E-1,3.555542E-1],"categories":[],"categories_nodes":[],"categories_segments":[],"categories_sizes":[],"default_left":[0,0,0,0,0,0,0,0,0,0,0,0,0,0,0,0,0],"id":45,"left_children":[1,3,-1,5,7,9,-1,-1,11,-1,13,15,-1,-1,-1,-1,-1],"loss_changes":[5.878113E2,1.0517958E2,0E0,8.219684E1,3.8464676E1,9.980693E-1,0E0,0E0,3.49231E1,0E0,3.5159602E0,1.5536963E1,0E0,0E0,0E0,0E0,0E0],"parents":[2147483647,0,0,1,1,3,3,4,4,5,5,8,8,10,10,11,11],"right_children":[2,4,-1,6,8,10,-1,-1,12,-1,14,16,-1,-1,-1,-1,-1],"split_conditions":[2.21E3,1.025E3,2.7132487E0,9.89E2,1.028E3,9.13E2,1.2962707E0,-1.7346314E0,2.029E3,-3.614746E-1,9.38E2,1.771E3,-1.1872559E0,1.24829106E-1,-2.2895508E-1,-3.3430788E-1,3.555542E-1],"split_indices":[1,1,0,1,1,1,0,0,1,0,1,1,0,0,0,0,0],"split_type":[0,0,0,0,0,0,0,0,0,0,0,0,0,0,0,0,0],"sum_hessian":[1.3E1,1.1E1,2E0,5E0,6E0,4E0,1E0,1E0,5E0,1E0,3E0,4E0,1E0,1E0,2E0,3E0,1E0],"tree_param":{"num_deleted":"0","num_feature":"2","num_nodes":"17","size_leaf_vector":"1"}},{"base_weights":[7.6435953E-1,-1.8313129E0,1.1757487E1,-3.4529927E0,-3.8613892E-1,6.9033206E-1,2.836914E0,-1.0212524E0,-1.5611695E0,1.0851701E0,-1.0685303E0,-3.253296E-1,-4.6324158E-1,-1.2121582E-1,4.0405273E-1,1.1234742E-1,-1.9842936E-1,3.6493328E-1,-5.9588623E-1],"categories":[],"categories_nodes":[],"categories_segments":[],"categories_sizes":[],"default_left":[0,0,0,0,0,0,0,0,0,0,0,0,0,0,0,0,0,0,0],"id":46,"left_children":[1,3,5,7,9,-1,-1,11,-1,13,-1,-1,15,17,-1,-1,-1,-1,-1],"loss_changes":[4.4955E2,2.913359E1,1.151651E1,5.553833E1,6.413818E1,0E0,0E0,9.3555546E-1,0E0,8.141473E0,0E0,0E0,2.725792E0,2.7683468E1,0E0,0E0,0E0,0E0,0E0],"parents":[2147483647,0,0,1,1,2,2,3,3,4,4,7,7,9,9,12,12,13,13],"right_children":[2,4,6,8,10,-1,-1,12,-1,14,-1,-1,16,18,-1,-1,-1,-1,-1],"split_conditions":[2.21E3,1.028E3,2.416E3,9.89E2,2.029E3,6.9033206E-1,2.836914E0,9.13E2,-1.5611695E0,1.649E3,-1.0685303E0,-3.253296E-1,9.38E2,1.624E3,4.0405273E-1,1.1234742E-1,-1.9842936E-1,3.6493328E-1,-5.9588623E-1],"split_indices":[1,1,1,1,1,0,0,1,0,1,0,0,1,1,0,0,0,0,0],"split_type":[0,0,0,0,0,0,0,0,0,0,0,0,0,0,0,0,0,0,0],"sum_hessian":[1.4E1,1.2E1,2E0,5E0,7E0,1E0,1E0,4E0,1E0,6E0,1E0,1E0,3E0,3E0,3E0,1E0,2E0,2E0,1E0],"tree_param":{"num_deleted":"0","num_feature":"2","num_nodes":"19","size_leaf_vector":"1"}},{"base_weights":[5.1098022E0,2.5569992E0,2.5532227E0,-6.389567E-1,3.7288105E0,-2.9279786E-1,1.0111084E-1,1.32276E0,3.6581054E-1],"categories":[],"categories_nodes":[],"categories_segments":[],"categories_sizes":[],"default_left":[0,0,0,0,0,0,0,0,0],"id":47,"left_children":[1,3,-1,5,7,-1,-1,-1,-1],"loss_changes":[1.4326254E2,3.2343014E1,0E0,3.572902E0,2.0787697E1,0E0,0E0,0E0,0E0],"parents":[2147483647,0,0,1,1,3,3,4,4],"right_children":[2,4,-1,6,8,-1,-1,-1,-1],"split_conditions":[2.029E3,9.38E2,2.5532227E0,9.13E2,1.025E3,-2.9279786E-1,1.0111084E-1,1.32276E0,3.6581054E-1],"split_indices":[1,1,0,1,1,0,0,0,0],"split_type":[0,0,0,0,0,0,0,0,0],"sum_hessian":[8E0,7E0,1E0,2E0,5E0,1E0,1E0,1E0,4E0],"tree_param":{"num_deleted":"0","num_feature":"2","num_nodes":"9","size_leaf_vector":"1"}},{"base_weights":[7.0926136E-1,-1.1465505E0,2.2979004E0,-1.4442582E-1,-1.2169923E0,-1.3516933E0,3.1492677E-1,8.257548E-1,-1.4416382E0,-2.7801272E-1,1.1904846E0],"categories":[],"categories_nodes":[],"categories_segments":[],"categories_sizes":[],"default_left":[0,0,0,0,0,0,0,0,0,0,0],"id":48,"left_children":[1,3,-1,5,-1,7,-1,9,-1,-1,-1],"loss_changes":[2.7325256E2,5.8508007E1,0E0,2.4957436E1,0E0,9.5217735E1,0E0,7.643284E1,0E0,0E0,0E0],"parents":[2147483647,0,0,1,1,3,3,5,5,7,7],"right_children":[2,4,-1,6,-1,8,-1,10,-1,-1,-1],"split_conditions":[2.21E3,2.029E3,2.2979004E0,1.028E3,-1.2169923E0,1.025E3,3.1492677E-1,9.89E2,-1.4416382E0,-2.7801272E-1,1.1904846E0],"split_indices":[1,1,0,1,0,1,0,1,0,0,0],"split_type":[0,0,0,0,0,0,0,0,0,0,0],"sum_hessian":[1.2E1,1.1E1,1E0,1E1,1E0,6E0,4E0,5E0,1E0,4E0,1E0],"tree_param":{"num_deleted":"0","num_feature":"2","num_nodes":"11","size_leaf_vector":"1"}},{"base_weights":[9.8434216E-1,-6.570587E-1,2.0681152E0,1.52406E0,-1.9381256E0,-7.735138E-1,1.0714356E0,-1.2974732E0,-3.6146763E-1,-2.3571777E-1,-2.4562581E-1,2.8243166E-1,-6.394043E-1,1.1879883E-1,-1.9248657E-1],"categories":[],"categories_nodes":[],"categories_segments":[],"categories_sizes":[],"default_left":[0,0,0,0,0,0,0,0,0,0,0,0,0,0,0],"id":49,"left_children":[1,3,-1,5,7,9,-1,-1,11,-1,13,-1,-1,-1,-1],"loss_changes":[2.0643965E2,3.648373E1,0E0,4.8178207E1,5.5035793E1,5.6584525E-1,0E0,0E0,3.971918E1,0E0,2.377216E0,0E0,0E0,0E0,0E0],"parents":[2147483647,0,0,1,1,3,3,4,4,5,5,8,8,10,10],"right_children":[2,4,-1,6,8,10,-1,-1,12,-1,14,-1,-1,-1,-1],"split_conditions":[2.0994077E3,1.177125E3,2.0681152E0,9.93375E2,1.2690625E3,8.925625E2,1.0714356E0,-1.2974732E0,2.0935E3,-2.3571777E-1,9.270625E2,2.8243166E-1,-6.394043E-1,1.1879883E-1,-1.9248657E-1],"split_indices":[0,0,0,0,0,0,0,0,0,0,0,0,0,0,0],"split_type":[0,0,0,0,0,0,0,0,0,0,0,0,0,0,0],"sum_hessian":[1.2E1,1.1E1,1E0,4E0,7E0,3E0,1E0,1E0,6E0,1E0,2E0,4E0,2E0,1E0,1E0],"tree_param":{"num_deleted":"0","num_feature":"2","num_nodes":"15","size_leaf_vector":"1"}}]},"name":"gbtree"},"learner_model_param":{"base_score":"1.5833125E3","boost_from_average":"1","num_class":"0","num_feature":"2","num_target":"1"},"objective":{"name":"reg:squarederror","reg_loss_param":{"scale_pos_weight":"1"}}},"version":[2,1,0]}